{"learner":{"attributes":{"scikit_learn":"{\"_estimator_type\": \"regressor\"}"},"feature_names":["title_enc","location_enc","skill_name_enc","formatted_experience_level_enc"],"feature_types":["int","int","int","int"],"gradient_booster":{"model":{"gbtree_model_param":{"num_parallel_tree":"1","num_trees":"1000"},"iteration_indptr":[0,1,2,3,4,5,6,7,8,9,10,11,12,13,14,15,16,17,18,19,20,21,22,23,24,25,26,27,28,29,30,31,32,33,34,35,36,37,38,39,40,41,42,43,44,45,46,47,48,49,50,51,52,53,54,55,56,57,58,59,60,61,62,63,64,65,66,67,68,69,70,71,72,73,74,75,76,77,78,79,80,81,82,83,84,85,86,87,88,89,90,91,92,93,94,95,96,97,98,99,100,101,102,103,104,105,106,107,108,109,110,111,112,113,114,115,116,117,118,119,120,121,122,123,124,125,126,127,128,129,130,131,132,133,134,135,136,137,138,139,140,141,142,143,144,145,146,147,148,149,150,151,152,153,154,155,156,157,158,159,160,161,162,163,164,165,166,167,168,169,170,171,172,173,174,175,176,177,178,179,180,181,182,183,184,185,186,187,188,189,190,191,192,193,194,195,196,197,198,199,200,201,202,203,204,205,206,207,208,209,210,211,212,213,214,215,216,217,218,219,220,221,222,223,224,225,226,227,228,229,230,231,232,233,234,235,236,237,238,239,240,241,242,243,244,245,246,247,248,249,250,251,252,253,254,255,256,257,258,259,260,261,262,263,264,265,266,267,268,269,270,271,272,273,274,275,276,277,278,279,280,281,282,283,284,285,286,287,288,289,290,291,292,293,294,295,296,297,298,299,300,301,302,303,304,305,306,307,308,309,310,311,312,313,314,315,316,317,318,319,320,321,322,323,324,325,326,327,328,329,330,331,332,333,334,335,336,337,338,339,340,341,342,343,344,345,346,347,348,349,350,351,352,353,354,355,356,357,358,359,360,361,362,363,364,365,366,367,368,369,370,371,372,373,374,375,376,377,378,379,380,381,382,383,384,385,386,387,388,389,390,391,392,393,394,395,396,397,398,399,400,401,402,403,404,405,406,407,408,409,410,411,412,413,414,415,416,417,418,419,420,421,422,423,424,425,426,427,428,429,430,431,432,433,434,435,436,437,438,439,440,441,442,443,444,445,446,447,448,449,450,451,452,453,454,455,456,457,458,459,460,461,462,463,464,465,466,467,468,469,470,471,472,473,474,475,476,477,478,479,480,481,482,483,484,485,486,487,488,489,490,491,492,493,494,495,496,497,498,499,500,501,502,503,504,505,506,507,508,509,510,511,512,513,514,515,516,517,518,519,520,521,522,523,524,525,526,527,528,529,530,531,532,533,534,535,536,537,538,539,540,541,542,543,544,545,546,547,548,549,550,551,552,553,554,555,556,557,558,559,560,561,562,563,564,565,566,567,568,569,570,571,572,573,574,575,576,577,578,579,580,581,582,583,584,585,586,587,588,589,590,591,592,593,594,595,596,597,598,599,600,601,602,603,604,605,606,607,608,609,610,611,612,613,614,615,616,617,618,619,620,621,622,623,624,625,626,627,628,629,630,631,632,633,634,635,636,637,638,639,640,641,642,643,644,645,646,647,648,649,650,651,652,653,654,655,656,657,658,659,660,661,662,663,664,665,666,667,668,669,670,671,672,673,674,675,676,677,678,679,680,681,682,683,684,685,686,687,688,689,690,691,692,693,694,695,696,697,698,699,700,701,702,703,704,705,706,707,708,709,710,711,712,713,714,715,716,717,718,719,720,721,722,723,724,725,726,727,728,729,730,731,732,733,734,735,736,737,738,739,740,741,742,743,744,745,746,747,748,749,750,751,752,753,754,755,756,757,758,759,760,761,762,763,764,765,766,767,768,769,770,771,772,773,774,775,776,777,778,779,780,781,782,783,784,785,786,787,788,789,790,791,792,793,794,795,796,797,798,799,800,801,802,803,804,805,806,807,808,809,810,811,812,813,814,815,816,817,818,819,820,821,822,823,824,825,826,827,828,829,830,831,832,833,834,835,836,837,838,839,840,841,842,843,844,845,846,847,848,849,850,851,852,853,854,855,856,857,858,859,860,861,862,863,864,865,866,867,868,869,870,871,872,873,874,875,876,877,878,879,880,881,882,883,884,885,886,887,888,889,890,891,892,893,894,895,896,897,898,899,900,901,902,903,904,905,906,907,908,909,910,911,912,913,914,915,916,917,918,919,920,921,922,923,924,925,926,927,928,929,930,931,932,933,934,935,936,937,938,939,940,941,942,943,944,945,946,947,948,949,950,951,952,953,954,955,956,957,958,959,960,961,962,963,964,965,966,967,968,969,970,971,972,973,974,975,976,977,978,979,980,981,982,983,984,985,986,987,988,989,990,991,992,993,994,995,996,997,998,999,1000],"tree_info":[0,0,0,0,0,0,0,0,0,0,0,0,0,0,0,0,0,0,0,0,0,0,0,0,0,0,0,0,0,0,0,0,0,0,0,0,0,0,0,0,0,0,0,0,0,0,0,0,0,0,0,0,0,0,0,0,0,0,0,0,0,0,0,0,0,0,0,0,0,0,0,0,0,0,0,0,0,0,0,0,0,0,0,0,0,0,0,0,0,0,0,0,0,0,0,0,0,0,0,0,0,0,0,0,0,0,0,0,0,0,0,0,0,0,0,0,0,0,0,0,0,0,0,0,0,0,0,0,0,0,0,0,0,0,0,0,0,0,0,0,0,0,0,0,0,0,0,0,0,0,0,0,0,0,0,0,0,0,0,0,0,0,0,0,0,0,0,0,0,0,0,0,0,0,0,0,0,0,0,0,0,0,0,0,0,0,0,0,0,0,0,0,0,0,0,0,0,0,0,0,0,0,0,0,0,0,0,0,0,0,0,0,0,0,0,0,0,0,0,0,0,0,0,0,0,0,0,0,0,0,0,0,0,0,0,0,0,0,0,0,0,0,0,0,0,0,0,0,0,0,0,0,0,0,0,0,0,0,0,0,0,0,0,0,0,0,0,0,0,0,0,0,0,0,0,0,0,0,0,0,0,0,0,0,0,0,0,0,0,0,0,0,0,0,0,0,0,0,0,0,0,0,0,0,0,0,0,0,0,0,0,0,0,0,0,0,0,0,0,0,0,0,0,0,0,0,0,0,0,0,0,0,0,0,0,0,0,0,0,0,0,0,0,0,0,0,0,0,0,0,0,0,0,0,0,0,0,0,0,0,0,0,0,0,0,0,0,0,0,0,0,0,0,0,0,0,0,0,0,0,0,0,0,0,0,0,0,0,0,0,0,0,0,0,0,0,0,0,0,0,0,0,0,0,0,0,0,0,0,0,0,0,0,0,0,0,0,0,0,0,0,0,0,0,0,0,0,0,0,0,0,0,0,0,0,0,0,0,0,0,0,0,0,0,0,0,0,0,0,0,0,0,0,0,0,0,0,0,0,0,0,0,0,0,0,0,0,0,0,0,0,0,0,0,0,0,0,0,0,0,0,0,0,0,0,0,0,0,0,0,0,0,0,0,0,0,0,0,0,0,0,0,0,0,0,0,0,0,0,0,0,0,0,0,0,0,0,0,0,0,0,0,0,0,0,0,0,0,0,0,0,0,0,0,0,0,0,0,0,0,0,0,0,0,0,0,0,0,0,0,0,0,0,0,0,0,0,0,0,0,0,0,0,0,0,0,0,0,0,0,0,0,0,0,0,0,0,0,0,0,0,0,0,0,0,0,0,0,0,0,0,0,0,0,0,0,0,0,0,0,0,0,0,0,0,0,0,0,0,0,0,0,0,0,0,0,0,0,0,0,0,0,0,0,0,0,0,0,0,0,0,0,0,0,0,0,0,0,0,0,0,0,0,0,0,0,0,0,0,0,0,0,0,0,0,0,0,0,0,0,0,0,0,0,0,0,0,0,0,0,0,0,0,0,0,0,0,0,0,0,0,0,0,0,0,0,0,0,0,0,0,0,0,0,0,0,0,0,0,0,0,0,0,0,0,0,0,0,0,0,0,0,0,0,0,0,0,0,0,0,0,0,0,0,0,0,0,0,0,0,0,0,0,0,0,0,0,0,0,0,0,0,0,0,0,0,0,0,0,0,0,0,0,0,0,0,0,0,0,0,0,0,0,0,0,0,0,0,0,0,0,0,0,0,0,0,0,0,0,0,0,0,0,0,0,0,0,0,0,0,0,0,0,0,0,0,0,0,0,0,0,0,0,0,0,0,0,0,0,0,0,0,0,0,0,0,0,0,0,0,0,0,0,0,0,0,0,0,0,0,0,0,0,0,0,0,0,0,0,0,0,0,0,0,0,0,0,0,0,0,0,0,0,0,0,0,0,0,0,0,0,0,0,0,0,0,0,0,0,0,0,0,0,0,0,0,0,0,0,0,0,0,0,0,0,0,0,0,0,0,0,0,0,0,0,0,0,0,0,0,0,0,0,0,0,0,0,0,0,0,0,0,0,0,0,0,0,0,0,0,0,0,0,0,0,0,0,0,0,0,0,0,0,0,0,0,0,0,0,0,0,0,0,0,0,0,0,0,0,0,0,0,0,0,0,0,0,0,0,0,0,0,0,0,0,0,0,0,0,0,0,0,0,0,0,0,0,0,0,0,0,0,0,0,0,0,0,0,0,0,0,0,0,0,0,0,0,0,0,0],"trees":[{"base_weights":[2.3194666E-3,-1.4352327E4,7.1344277E3,4.8124687E1,-3.2388664E4,1.3757906E3,2.2545092E4,-2.2394996E4,4.7534566E4,-2.7309662E4,-3.895981E4,-4.104288E3,6.999522E3,3.1108848E4,6.7546675E3,1.8966992E4,-2.314058E4,3.4934344E4,5.7249855E4,-4.193017E4,-1.985249E4,-4.436147E4,-2.9916596E4,4.6829805E4,-4.871305E3,1.301714E4,-5.0557938E2,2.8647594E4,7.09641E4,5.2220133E4,4.481454E3,5.921142E3,-3.1819458E3,-5.701838E3,-3.5343318E3,7.5101016E3,-2.6880304E1,1.0502814E4,1.8157832E4,-8.658855E3,-6.245578E3,-4.8566265E3,-1.5546078E3,-6.428007E3,-9.067428E3,1.077804E4,-6.5330205E3,-2.2997285E3,2.2234773E4,-4.012013E1,-2.3678896E3,-1.2147155E3,3.2120078E3,-2.2761814E3,1.801361E3,5.958366E3,-7.897547E3,8.990084E3,1.899881E4,-3.134939E3,1.2206709E4,2.5474963E3,-9.0965234E2],"categories":[],"categories_nodes":[],"categories_segments":[],"categories_sizes":[],"default_left":[0,0,0,0,0,0,0,0,0,0,0,0,0,0,0,0,0,0,0,0,0,0,0,0,0,0,0,0,0,0,0,0,0,0,0,0,0,0,0,0,0,0,0,0,0,0,0,0,0,0,0,0,0,0,0,0,0,0,0,0,0,0,0],"id":0,"left_children":[1,3,5,7,9,11,13,15,17,19,21,23,25,27,29,31,33,35,37,39,41,43,45,47,49,51,53,55,57,59,61,-1,-1,-1,-1,-1,-1,-1,-1,-1,-1,-1,-1,-1,-1,-1,-1,-1,-1,-1,-1,-1,-1,-1,-1,-1,-1,-1,-1,-1,-1,-1,-1],"loss_changes":[1.8185464E12,1.5316377E12,1.05274416E12,3.4967045E12,8.631144E10,2.6620802E11,4.36162E11,6.914795E10,1.2690286E11,1.6052847E11,5.4311125E10,1.7114769E11,1.9253576E11,2.0317969E11,1.1717462E11,1.5312761E10,6.3766397E10,4.2299752E10,8.942138E10,5.9329085E9,5.2367622E10,7.0208717E9,1.0057771E11,2.4522916E11,1.4030406E11,1.3754112E11,1.9645114E11,1.5491911E11,7.136792E10,3.3269481E10,8.079512E10,0E0,0E0,0E0,0E0,0E0,0E0,0E0,0E0,0E0,0E0,0E0,0E0,0E0,0E0,0E0,0E0,0E0,0E0,0E0,0E0,0E0,0E0,0E0,0E0,0E0,0E0,0E0,0E0,0E0,0E0,0E0,0E0],"parents":[2147483647,0,0,1,1,2,2,3,3,4,4,5,5,6,6,7,7,8,8,9,9,10,10,11,11,12,12,13,13,14,14,15,15,16,16,17,17,18,18,19,19,20,20,21,21,22,22,23,23,24,24,25,25,26,26,27,27,28,28,29,29,30,30],"right_children":[2,4,6,8,10,12,14,16,18,20,22,24,26,28,30,32,34,36,38,40,42,44,46,48,50,52,54,56,58,60,62,-1,-1,-1,-1,-1,-1,-1,-1,-1,-1,-1,-1,-1,-1,-1,-1,-1,-1,-1,-1,-1,-1,-1,-1,-1,-1,-1,-1,-1,-1,-1,-1],"split_conditions":[3E0,2E0,4.594E3,1E0,1.8E1,1.076E3,5.428E3,4.9E1,1.042E3,1.1E1,2.2E1,8.6E1,1.8E1,5.385E3,4E0,1.5E1,9.88E2,9.78E2,4.689E3,1.591E3,3.805E3,1.11E2,2.3E1,4.9E1,6E0,3E0,2.2E1,5.383E3,6E0,5.458E3,5.653E3,5.921142E3,-3.1819458E3,-5.701838E3,-3.5343318E3,7.5101016E3,-2.6880304E1,1.0502814E4,1.8157832E4,-8.658855E3,-6.245578E3,-4.8566265E3,-1.5546078E3,-6.428007E3,-9.067428E3,1.077804E4,-6.5330205E3,-2.2997285E3,2.2234773E4,-4.012013E1,-2.3678896E3,-1.2147155E3,3.2120078E3,-2.2761814E3,1.801361E3,5.958366E3,-7.897547E3,8.990084E3,1.899881E4,-3.134939E3,1.2206709E4,2.5474963E3,-9.0965234E2],"split_indices":[3,3,0,3,2,1,0,0,1,2,2,0,2,0,3,2,1,1,0,1,0,1,2,0,3,2,2,0,3,0,0,0,0,0,0,0,0,0,0,0,0,0,0,0,0,0,0,0,0,0,0,0,0,0,0,0,0,0,0,0,0,0,0],"split_type":[0,0,0,0,0,0,0,0,0,0,0,0,0,0,0,0,0,0,0,0,0,0,0,0,0,0,0,0,0,0,0,0,0,0,0,0,0,0,0,0,0,0,0,0,0,0,0,0,0,0,0,0,0,0,0,0,0,0,0,0,0,0,0],"sum_hessian":[1.7758E4,5.896E3,1.1862E4,3.279E3,2.617E3,8.636E3,3.226E3,2.227E3,1.052E3,1.479E3,1.138E3,4.374E3,4.262E3,2.091E3,1.135E3,3.9E1,2.188E3,4.6E2,5.92E2,4.98E2,9.81E2,7.1E2,4.28E2,6.4E1,4.31E3,2.365E3,1.897E3,1.971E3,1.2E2,5.3E1,1.082E3,3E1,9E0,1.102E3,1.086E3,4.28E2,3.2E1,5.21E2,7.1E1,4.39E2,5.9E1,7.17E2,2.64E2,5.5E1,6.55E2,1.3E1,4.15E2,3.4E1,3E1,2.581E3,1.729E3,3.25E2,2.04E3,8.85E2,1.012E3,1.939E3,3.2E1,5.9E1,6.1E1,6E0,4.7E1,5.65E2,5.17E2],"tree_param":{"num_deleted":"0","num_feature":"4","num_nodes":"63","size_leaf_vector":"1"}},{"base_weights":[2.979023E0,-1.1482358E4,5.7122456E3,4.7536842E1,-2.5923371E4,1.1028374E3,1.8047463E4,-1.7918914E4,3.8061977E4,-2.1862135E4,-3.1177723E4,-1.6745979E3,9.26992E3,2.489953E4,5.4131577E3,-1.8399117E4,2.6946297E4,3.1756658E4,5.1659504E4,-3.3574008E4,-1.5888521E4,-3.551097E4,-2.3923377E4,-3.8023032E2,-1.7476775E4,3.1744068E4,5.1555693E3,-5.4871113E3,2.7384832E4,4.1944098E4,3.5866719E3,3.0484148E3,-3.8023767E3,-1.5432483E3,1.3722519E4,-1.8601708E3,6.624185E3,1.6028446E3,1.1006883E4,-8.915683E3,-6.466224E3,-5.835365E2,-3.9347068E3,-5.1653623E3,-7.2567065E3,8.776404E3,-5.229556E3,-3.7214426E2,1.2700605E4,-7.733661E3,-4.748252E2,1.5591913E3,7.920457E3,-2.7122498E3,1.4155199E3,1.0522174E4,-1.3883258E3,5.0651675E3,1.1887189E4,-2.597521E3,9.816228E3,2.0388965E3,-7.280739E2],"categories":[],"categories_nodes":[],"categories_segments":[],"categories_sizes":[],"default_left":[0,0,0,0,0,0,0,0,0,0,0,0,0,0,0,0,0,0,0,0,0,0,0,0,0,0,0,0,0,0,0,0,0,0,0,0,0,0,0,0,0,0,0,0,0,0,0,0,0,0,0,0,0,0,0,0,0,0,0,0,0,0,0],"id":1,"left_children":[1,3,5,7,9,11,13,15,17,19,21,23,25,27,29,31,33,35,37,39,41,43,45,47,49,51,53,55,57,59,61,-1,-1,-1,-1,-1,-1,-1,-1,-1,-1,-1,-1,-1,-1,-1,-1,-1,-1,-1,-1,-1,-1,-1,-1,-1,-1,-1,-1,-1,-1,-1,-1],"loss_changes":[1.1645739E12,9.8187156E11,6.7448714E11,2.2408717E12,5.5184458E10,1.9593329E11,2.7923015E11,4.849664E10,8.864019E10,1.030106E11,3.4954805E10,1.3183871E11,2.0252297E11,1.5813837E11,7.564717E10,4.574393E10,3.519166E10,4.074976E10,4.8462234E10,5.383717E9,4.8153674E10,4.382327E9,6.5852064E10,5.637119E11,1.5609171E11,6.348751E10,6.6792305E10,1.380143E10,1.2612521E11,2.180812E10,5.1755688E10,0E0,0E0,0E0,0E0,0E0,0E0,0E0,0E0,0E0,0E0,0E0,0E0,0E0,0E0,0E0,0E0,0E0,0E0,0E0,0E0,0E0,0E0,0E0,0E0,0E0,0E0,0E0,0E0,0E0,0E0,0E0,0E0],"parents":[2147483647,0,0,1,1,2,2,3,3,4,4,5,5,6,6,7,7,8,8,9,9,10,10,11,11,12,12,13,13,14,14,15,15,16,16,17,17,18,18,19,19,20,20,21,21,22,22,23,23,24,24,25,25,26,26,27,27,28,28,29,29,30,30],"right_children":[2,4,6,8,10,12,14,16,18,20,22,24,26,28,30,32,34,36,38,40,42,44,46,48,50,52,54,56,58,60,62,-1,-1,-1,-1,-1,-1,-1,-1,-1,-1,-1,-1,-1,-1,-1,-1,-1,-1,-1,-1,-1,-1,-1,-1,-1,-1,-1,-1,-1,-1,-1,-1],"split_conditions":[3E0,2E0,4.594E3,1E0,1.8E1,1.37E3,5.428E3,5.815E3,1.355E3,1.1E1,2.2E1,4.42E3,1.389E3,4E0,4E0,4.9E1,1.349E3,3.36E2,3.36E2,1.55E2,1.2E1,1.11E2,2.3E1,4.39E3,4.468E3,1.259E3,1.416E3,4E0,5.385E3,5.458E3,5.653E3,3.0484148E3,-3.8023767E3,-1.5432483E3,1.3722519E4,-1.8601708E3,6.624185E3,1.6028446E3,1.1006883E4,-8.915683E3,-6.466224E3,-5.835365E2,-3.9347068E3,-5.1653623E3,-7.2567065E3,8.776404E3,-5.229556E3,-3.7214426E2,1.2700605E4,-7.733661E3,-4.748252E2,1.5591913E3,7.920457E3,-2.7122498E3,1.4155199E3,1.0522174E4,-1.3883258E3,5.0651675E3,1.1887189E4,-2.597521E3,9.816228E3,2.0388965E3,-7.280739E2],"split_indices":[3,3,0,3,2,1,0,0,1,2,2,0,1,2,3,0,1,0,0,1,2,1,2,0,0,0,1,3,0,0,0,0,0,0,0,0,0,0,0,0,0,0,0,0,0,0,0,0,0,0,0,0,0,0,0,0,0,0,0,0,0,0,0],"split_type":[0,0,0,0,0,0,0,0,0,0,0,0,0,0,0,0,0,0,0,0,0,0,0,0,0,0,0,0,0,0,0,0,0,0,0,0,0,0,0,0,0,0,0,0,0,0,0,0,0,0,0,0,0,0,0,0,0,0,0,0,0,0,0],"sum_hessian":[1.7758E4,5.896E3,1.1862E4,3.279E3,2.617E3,8.636E3,3.226E3,2.227E3,1.052E3,1.479E3,1.138E3,6.445E3,2.191E3,2.091E3,1.135E3,2.204E3,2.3E1,7.21E2,3.31E2,4.98E2,9.81E2,7.1E2,4.28E2,5.958E3,4.87E2,3.38E2,1.853E3,1.58E2,1.933E3,5.3E1,1.082E3,3.9E1,2.165E3,1.3E1,1E1,2.3E1,6.98E2,2.4E1,3.07E2,4.7E1,4.51E2,2.22E2,7.59E2,5.5E1,6.55E2,1.3E1,4.15E2,5.824E3,1.34E2,2.02E2,2.85E2,8.4E1,2.54E2,1.72E2,1.681E3,3E0,1.55E2,1.818E3,1.15E2,6E0,4.7E1,5.65E2,5.17E2],"tree_param":{"num_deleted":"0","num_feature":"4","num_nodes":"63","size_leaf_vector":"1"}},{"base_weights":[5.02486E0,-9.185884E3,4.5737495E3,4.680846E1,-2.074969E4,8.836915E2,1.4448698E4,-1.4330005E4,3.046608E4,-2.36826E4,-1.4726739E4,5.15186E3,-3.8472427E3,1.9932096E4,4.3380317E3,-2.1367836E4,-1.1321992E4,2.79701E4,5.6234203E4,-2.0299018E4,-2.8594713E4,2.2645541E2,-2.1135627E4,1.4271227E3,1.945762E4,4.180624E4,-4.685839E3,1.4640684E4,3.0080621E4,3.368896E4,2.870545E3,4.021157E3,-4.4578423E3,-1.031556E3,-3.6770247E3,-7.7288414E1,5.8854175E3,1.1914773E4,-6.426375E3,-4.84681E3,-2.220561E3,-4.7471206E3,-6.116378E3,-1.9238049E3,1.6066757E3,-5.87315E3,-2.7679163E3,-1.8652825E3,7.2596533E2,3.018153E3,5.747931E3,2.0418094E4,6.590447E3,-2.7746045E3,-7.313625E1,-1.5737333E3,3.3670227E3,8.022479E3,3.1256228E3,-2.1522312E3,7.893883E3,-9.05589E3,7.7305994E2],"categories":[],"categories_nodes":[],"categories_segments":[],"categories_sizes":[],"default_left":[0,0,0,0,0,0,0,0,0,0,0,0,0,0,0,0,0,0,0,0,0,0,0,0,0,0,0,0,0,0,0,0,0,0,0,0,0,0,0,0,0,0,0,0,0,0,0,0,0,0,0,0,0,0,0,0,0,0,0,0,0,0,0],"id":2,"left_children":[1,3,5,7,9,11,13,15,17,19,21,23,25,27,29,31,33,35,37,39,41,43,45,47,49,51,53,55,57,59,61,-1,-1,-1,-1,-1,-1,-1,-1,-1,-1,-1,-1,-1,-1,-1,-1,-1,-1,-1,-1,-1,-1,-1,-1,-1,-1,-1,-1,-1,-1,-1,-1],"loss_changes":[7.4575544E11,6.295946E11,4.3226464E11,1.4348862E12,4.5897613E10,1.7442179E11,1.78821E11,4.6924562E10,6.6152694E10,2.8655026E10,8.242148E10,2.419403E11,1.5704886E11,1.119001E11,4.883321E10,2.5897861E10,6.795608E10,3.9756497E10,2.9064593E10,3.7546754E10,6.1780787E9,1.9984763E10,3.5742106E10,8.540127E10,3.7586534E10,3.6133904E10,1.5970779E11,6.814964E10,1.03181844E11,1.4299595E10,5.2047933E10,0E0,0E0,0E0,0E0,0E0,0E0,0E0,0E0,0E0,0E0,0E0,0E0,0E0,0E0,0E0,0E0,0E0,0E0,0E0,0E0,0E0,0E0,0E0,0E0,0E0,0E0,0E0,0E0,0E0,0E0,0E0,0E0],"parents":[2147483647,0,0,1,1,2,2,3,3,4,4,5,5,6,6,7,7,8,8,9,9,10,10,11,11,12,12,13,13,14,14,15,15,16,16,17,17,18,18,19,19,20,20,21,21,22,22,23,23,24,24,25,25,26,26,27,27,28,28,29,29,30,30],"right_children":[2,4,6,8,10,12,14,16,18,20,22,24,26,28,30,32,34,36,38,40,42,44,46,48,50,52,54,56,58,60,62,-1,-1,-1,-1,-1,-1,-1,-1,-1,-1,-1,-1,-1,-1,-1,-1,-1,-1,-1,-1,-1,-1,-1,-1,-1,-1,-1,-1,-1,-1,-1,-1],"split_conditions":[3E0,2E0,4.594E3,1E0,3.538E3,1.7E1,5.428E3,8E0,4.707E3,1.8E1,4.15E3,1.6E1,4E0,1.355E3,4E0,4.9E1,1.9E1,3.36E2,5.892E3,1.358E3,1.071E3,8.82E2,5.093E3,3E0,1.361E3,2.22E2,2E1,4E0,1.521E3,5.458E3,5E0,4.021157E3,-4.4578423E3,-1.031556E3,-3.6770247E3,-7.7288414E1,5.8854175E3,1.1914773E4,-6.426375E3,-4.84681E3,-2.220561E3,-4.7471206E3,-6.116378E3,-1.9238049E3,1.6066757E3,-5.87315E3,-2.7679163E3,-1.8652825E3,7.2596533E2,3.018153E3,5.747931E3,2.0418094E4,6.590447E3,-2.7746045E3,-7.313625E1,-1.5737333E3,3.3670227E3,8.022479E3,3.1256228E3,-2.1522312E3,7.893883E3,-9.05589E3,7.7305994E2],"split_indices":[3,3,0,3,0,2,0,2,0,2,0,2,3,1,3,0,2,0,0,1,0,1,0,2,1,0,2,2,1,0,3,0,0,0,0,0,0,0,0,0,0,0,0,0,0,0,0,0,0,0,0,0,0,0,0,0,0,0,0,0,0,0,0],"split_type":[0,0,0,0,0,0,0,0,0,0,0,0,0,0,0,0,0,0,0,0,0,0,0,0,0,0,0,0,0,0,0,0,0,0,0,0,0,0,0,0,0,0,0,0,0,0,0,0,0,0,0,0,0,0,0,0,0,0,0,0,0,0,0],"sum_hessian":[1.7758E4,5.896E3,1.1862E4,3.279E3,2.617E3,8.636E3,3.226E3,2.227E3,1.052E3,1.758E3,8.59E2,4.54E3,4.096E3,2.091E3,1.135E3,6.65E2,1.562E3,9.61E2,9.1E1,1.044E3,7.14E2,2.58E2,6.01E2,3.603E3,9.37E2,7.3E1,4.023E3,1.376E3,7.15E2,5.3E1,1.082E3,1.4E1,6.51E2,8.35E2,7.27E2,4.7E1,9.14E2,8.8E1,3E0,7.3E2,3.14E2,2.11E2,5.03E2,1.14E2,1.44E2,2.81E2,3.2E2,6.12E2,2.991E3,6.39E2,2.98E2,8E0,6.5E1,1.286E3,2.737E3,1.22E2,1.254E3,4.21E2,2.94E2,6E0,4.7E1,2.1E1,1.061E3],"tree_param":{"num_deleted":"0","num_feature":"4","num_nodes":"63","size_leaf_vector":"1"}},{"base_weights":[5.2260804E0,-7.3522236E3,3.6625535E3,3.9322193E1,-1.6610023E4,7.106306E2,1.1562181E4,-1.1466313E4,2.4383594E4,-1.8956273E4,-1.1791809E4,-3.0081045E3,4.5269E3,1.5951863E4,3.468186E3,-1.6540549E4,-7.6675576E3,1.5689745E4,3.11011E4,-1.6151903E4,-2.2796139E4,1.7994176E2,-1.6922857E4,3.754888E4,-3.618913E3,1.7389252E4,2.2248625E3,1.4389909E4,4.1276004E4,-2.803051E2,1.1291886E4,-4.4140386E3,-2.8080234E3,-1.060141E3,-4.428636E3,3.5603052E3,-2.4477712E3,5.6161636E3,1.0513238E4,-3.8682927E3,-9.462462E2,-5.0906807E3,-4.0395837E3,-4.932833E2,4.798049E3,-4.702686E3,-2.216058E3,-1.8787386E3,1.786746E4,-2.9821646E3,-3.5288092E2,-3.100773E2,4.297252E3,-1.0010599E3,1.3854823E3,3.0416067E3,-6.8283823E3,3.905813E3,1.2331139E4,7.1479285E2,-2.9487961E3,8.0388877E3,1.6266752E3],"categories":[],"categories_nodes":[],"categories_segments":[],"categories_sizes":[],"default_left":[0,0,0,0,0,0,0,0,0,0,0,0,0,0,0,0,0,0,0,0,0,0,0,0,0,0,0,0,0,0,0,0,0,0,0,0,0,0,0,0,0,0,0,0,0,0,0,0,0,0,0,0,0,0,0,0,0,0,0,0,0,0,0],"id":3,"left_children":[1,3,5,7,9,11,13,15,17,19,21,23,25,27,29,31,33,35,37,39,41,43,45,47,49,51,53,55,57,59,61,-1,-1,-1,-1,-1,-1,-1,-1,-1,-1,-1,-1,-1,-1,-1,-1,-1,-1,-1,-1,-1,-1,-1,-1,-1,-1,-1,-1,-1,-1,-1,-1],"loss_changes":[4.778968E11,4.035291E11,2.7662615E11,9.1899553E11,2.9372252E10,1.2258728E11,1.1460018E11,4.2819617E10,6.100825E10,1.8573427E10,5.2830806E10,1.085158E11,1.261871E11,8.215537E10,3.3318715E10,1.2866781E10,4.360051E10,2.7407229E10,3.696853E10,3.7063934E10,4.5949583E9,1.6378913E10,2.2919987E10,1.5885951E11,9.02501E10,5.0237817E10,1.2301336E11,7.881759E10,5.2422607E10,4.2922058E10,3.3267438E10,0E0,0E0,0E0,0E0,0E0,0E0,0E0,0E0,0E0,0E0,0E0,0E0,0E0,0E0,0E0,0E0,0E0,0E0,0E0,0E0,0E0,0E0,0E0,0E0,0E0,0E0,0E0,0E0,0E0,0E0,0E0,0E0],"parents":[2147483647,0,0,1,1,2,2,3,3,4,4,5,5,6,6,7,7,8,8,9,9,10,10,11,11,12,12,13,13,14,14,15,15,16,16,17,17,18,18,19,19,20,20,21,21,22,22,23,23,24,24,25,25,26,26,27,27,28,28,29,29,30,30],"right_children":[2,4,6,8,10,12,14,16,18,20,22,24,26,28,30,32,34,36,38,40,42,44,46,48,50,52,54,56,58,60,62,-1,-1,-1,-1,-1,-1,-1,-1,-1,-1,-1,-1,-1,-1,-1,-1,-1,-1,-1,-1,-1,-1,-1,-1,-1,-1,-1,-1,-1,-1,-1,-1],"split_conditions":[3E0,2E0,4.594E3,1E0,3.538E3,1.076E3,5.428E3,8.82E2,1.042E3,1.7E1,4.15E3,8.6E1,1.079E3,5.385E3,2E1,1.1E1,2.9E1,9.78E2,4.689E3,1.6E1,2E1,4.062E3,5.093E3,4.9E1,6.96E2,5.2E2,1.37E3,5.383E3,6E0,1.8E1,7.8E1,-4.4140386E3,-2.8080234E3,-1.060141E3,-4.428636E3,3.5603052E3,-2.4477712E3,5.6161636E3,1.0513238E4,-3.8682927E3,-9.462462E2,-5.0906807E3,-4.0395837E3,-4.932833E2,4.798049E3,-4.702686E3,-2.216058E3,-1.8787386E3,1.786746E4,-2.9821646E3,-3.5288092E2,-3.100773E2,4.297252E3,-1.0010599E3,1.3854823E3,3.0416067E3,-6.8283823E3,3.905813E3,1.2331139E4,7.1479285E2,-2.9487961E3,8.0388877E3,1.6266752E3],"split_indices":[3,3,0,3,0,1,0,1,1,2,0,0,1,0,2,2,2,1,0,2,2,0,0,0,0,0,1,0,3,2,1,0,0,0,0,0,0,0,0,0,0,0,0,0,0,0,0,0,0,0,0,0,0,0,0,0,0,0,0,0,0,0,0],"split_type":[0,0,0,0,0,0,0,0,0,0,0,0,0,0,0,0,0,0,0,0,0,0,0,0,0,0,0,0,0,0,0,0,0,0,0,0,0,0,0,0,0,0,0,0,0,0,0,0,0,0,0,0,0,0,0,0,0,0,0,0,0,0,0],"sum_hessian":[1.7758E4,5.896E3,1.1862E4,3.279E3,2.617E3,8.636E3,3.226E3,2.227E3,1.052E3,1.758E3,8.59E2,4.374E3,4.262E3,2.091E3,1.135E3,9.52E2,1.275E3,4.6E2,5.92E2,1.019E3,7.39E2,2.58E2,6.01E2,6.4E1,4.31E3,6.46E2,3.616E3,1.971E3,1.2E2,7.68E2,3.67E2,2.94E2,6.58E2,1.097E3,1.78E2,4.28E2,3.2E1,5.21E2,7.1E1,7.96E2,2.23E2,3.61E2,3.78E2,2.33E2,2.5E1,2.81E2,3.2E2,3.4E1,3E1,6.07E2,3.703E3,1.15E2,5.31E2,1.425E3,2.191E3,1.939E3,3.2E1,5.9E1,6.1E1,6.07E2,1.61E2,3.5E1,3.32E2],"tree_param":{"num_deleted":"0","num_feature":"4","num_nodes":"63","size_leaf_vector":"1"}},{"base_weights":[5.582098E0,-5.8838184E3,2.9331543E3,3.28401E1,-1.3294344E4,4.6910373E2,9.006067E3,-9.178757E3,1.9523252E4,-1.5280818E4,-8.50696E3,1.458692E3,-1.6820484E4,-7.708596E2,1.1340924E4,-9.565686E3,2.6752781E4,1.5223191E4,2.8815785E4,-1.733683E4,-1.1619912E4,-5.6981387E3,-2.39786E4,2.2923297E2,6.700319E4,-2.9531906E4,-9.1106433E2,8.623172E3,-6.3601484E3,2.9546766E4,7.7405747E3,-2.5833396E3,-1.2239458E3,9.608698E3,-4.366815E3,3.154767E3,-1.0623175E4,2.819336E3,6.9662695E3,-2.939023E3,-4.0964946E3,3.9267297E2,-2.8660676E3,-1.5795457E2,-2.5947402E3,-5.5749956E3,-2.3240134E3,5.622244E3,-5.4087013E1,1.4714729E4,-4.1840005E3,-3.1774765E2,-7.4137236E3,2.8552559E3,-1.7558469E3,-1.02301807E3,4.3288965E3,-6.084003E2,-4.590977E3,6.15223E3,-3.589774E3,-1.1804711E3,2.0527183E3],"categories":[],"categories_nodes":[],"categories_segments":[],"categories_sizes":[],"default_left":[0,0,0,0,0,0,0,0,0,0,0,0,0,0,0,0,0,0,0,0,0,0,0,0,0,0,0,0,0,0,0,0,0,0,0,0,0,0,0,0,0,0,0,0,0,0,0,0,0,0,0,0,0,0,0,0,0,0,0,0,0,0,0],"id":4,"left_children":[1,3,5,7,9,11,13,15,17,19,21,23,25,27,29,31,33,35,37,39,41,43,45,47,49,51,53,55,57,59,61,-1,-1,-1,-1,-1,-1,-1,-1,-1,-1,-1,-1,-1,-1,-1,-1,-1,-1,-1,-1,-1,-1,-1,-1,-1,-1,-1,-1,-1,-1,-1,-1],"loss_changes":[3.0621162E11,2.5855766E11,1.775133E11,5.8906326E11,2.4767234E10,1.4442933E11,7.817085E10,3.1231672E10,4.1637577E10,1.3715702E10,3.3325314E10,6.433694E11,9.2392825E10,3.476128E10,1.8094424E11,2.538306E10,2.587575E10,2.8007006E10,2.8905505E10,9.521299E9,2.4621531E10,2.3309122E10,5.358199E9,1.0920456E11,8.64604E10,5.34334E10,2.450264E10,4.4296593E10,2.2781635E10,2.6853278E10,7.953942E10,0E0,0E0,0E0,0E0,0E0,0E0,0E0,0E0,0E0,0E0,0E0,0E0,0E0,0E0,0E0,0E0,0E0,0E0,0E0,0E0,0E0,0E0,0E0,0E0,0E0,0E0,0E0,0E0,0E0,0E0,0E0,0E0],"parents":[2147483647,0,0,1,1,2,2,3,3,4,4,5,5,6,6,7,7,8,8,9,9,10,10,11,11,12,12,13,13,14,14,15,15,16,16,17,17,18,18,19,19,20,20,21,21,22,22,23,23,24,24,25,25,26,26,27,27,28,28,29,29,30,30],"right_children":[2,4,6,8,10,12,14,16,18,20,22,24,26,28,30,32,34,36,38,40,42,44,46,48,50,52,54,56,58,60,62,-1,-1,-1,-1,-1,-1,-1,-1,-1,-1,-1,-1,-1,-1,-1,-1,-1,-1,-1,-1,-1,-1,-1,-1,-1,-1,-1,-1,-1,-1,-1,-1],"split_conditions":[3E0,2E0,4.531E3,1E0,1.355E3,4.399E3,1.1E1,5.815E3,1.355E3,3.388E3,1.603E3,4.39E3,4.468E3,5.034E3,1.2E1,9.88E2,5.864E3,1.349E3,1.505E3,1.86E3,3.727E3,1.8E1,3.538E3,4E0,6E0,2E1,4.501E3,4E0,7E0,1.632E3,1.6E1,-2.5833396E3,-1.2239458E3,9.608698E3,-4.366815E3,3.154767E3,-1.0623175E4,2.819336E3,6.9662695E3,-2.939023E3,-4.0964946E3,3.9267297E2,-2.8660676E3,-1.5795457E2,-2.5947402E3,-5.5749956E3,-2.3240134E3,5.622244E3,-5.4087013E1,1.4714729E4,-4.1840005E3,-3.1774765E2,-7.4137236E3,2.8552559E3,-1.7558469E3,-1.02301807E3,4.3288965E3,-6.084003E2,-4.590977E3,6.15223E3,-3.589774E3,-1.1804711E3,2.0527183E3],"split_indices":[3,3,0,3,1,0,2,0,1,0,1,0,0,0,2,1,0,1,0,0,0,2,0,3,3,2,0,2,2,1,2,0,0,0,0,0,0,0,0,0,0,0,0,0,0,0,0,0,0,0,0,0,0,0,0,0,0,0,0,0,0,0,0],"split_type":[0,0,0,0,0,0,0,0,0,0,0,0,0,0,0,0,0,0,0,0,0,0,0,0,0,0,0,0,0,0,0,0,0,0,0,0,0,0,0,0,0,0,0,0,0,0,0,0,0,0,0,0,0,0,0,0,0,0,0,0,0,0,0],"sum_hessian":[1.7758E4,5.896E3,1.1862E4,3.279E3,2.617E3,8.439E3,3.423E3,2.227E3,1.052E3,1.848E3,7.69E2,7.983E3,4.56E2,6.6E2,2.763E3,2.204E3,2.3E1,7.21E2,3.31E2,1.181E3,6.67E2,6.52E2,1.17E2,7.837E3,1.46E2,2.53E2,2.03E2,2.46E2,4.14E2,4.55E2,2.308E3,1.116E3,1.088E3,1.6E1,7E0,7.16E2,5E0,9.7E1,2.34E2,6.45E2,5.36E2,1.11E2,5.56E2,3.9E2,2.62E2,8.8E1,2.9E1,1.37E2,7.7E3,1.36E2,1E1,5.4E1,1.99E2,6.9E1,1.34E2,1.2E2,1.26E2,3.46E2,6.8E1,4.44E2,1.1E1,3.6E2,1.948E3],"tree_param":{"num_deleted":"0","num_feature":"4","num_nodes":"63","size_leaf_vector":"1"}},{"base_weights":[4.160761E0,-3.5654949E3,3.366178E3,1.3711306E3,-5.9106265E3,4.8227793E4,2.744246E3,-5.6112534E3,4.5575435E3,2.2606662E4,-6.22553E3,2.966411E4,6.148073E4,-4.592268E3,4.850617E3,-3.3355393E3,-3.0787424E4,8.172352E3,-8.4463837E2,-1.9739272E3,7.303234E4,-1.4347881E4,-4.907581E3,-1.5671933E4,3.461007E4,5.3142957E4,8.354166E4,6.8030693E3,-7.9245415E3,1.8948488E4,3.6899167E3,5.0986447E2,-1.9089293E3,-5.63006E3,-8.864516E3,-1.2319877E3,2.2006404E3,-8.7310754E2,5.3288545E3,2.4838591E3,-6.1257554E3,-5.6354427E1,1.9192123E4,-2.1036436E3,-4.382303E3,6.165525E3,-1.0392703E3,4.2806978E3,-5.473543E3,7.709E3,-3.8588254E3,6.798865E2,1.0991187E4,2.1831904E4,9.158993E3,-1.645292E3,3.0225256E3,-1.278173E3,-4.6584253E3,1.8349387E3,5.3017773E3,-5.255061E2,1.2458442E3],"categories":[],"categories_nodes":[],"categories_segments":[],"categories_sizes":[],"default_left":[0,0,0,0,0,0,0,0,0,0,0,0,0,0,0,0,0,0,0,0,0,0,0,0,0,0,0,0,0,0,0,0,0,0,0,0,0,0,0,0,0,0,0,0,0,0,0,0,0,0,0,0,0,0,0,0,0,0,0,0,0,0,0],"id":5,"left_children":[1,3,5,7,9,11,13,15,17,19,21,23,25,27,29,31,33,35,37,39,41,43,45,47,49,51,53,55,57,59,61,-1,-1,-1,-1,-1,-1,-1,-1,-1,-1,-1,-1,-1,-1,-1,-1,-1,-1,-1,-1,-1,-1,-1,-1,-1,-1,-1,-1,-1,-1,-1,-1],"loss_changes":[2.1314208E11,9.9732685E10,2.5504894E11,6.1765878E10,5.2585038E10,2.8929163E10,1.3944301E11,4.9742885E10,3.7226988E10,7.947171E10,6.177145E10,1.2650848E10,8.803942E9,7.6492325E10,1.1463759E11,2.9219578E10,1.3222707E9,4.6401634E10,7.415737E10,1.8527558E10,3.5327336E10,2.3116268E10,5.146747E10,3.1875205E9,1.113704E10,4.773282E9,1.2406858E10,5.7073586E10,3.6571505E10,3.9142162E10,1.03935934E11,0E0,0E0,0E0,0E0,0E0,0E0,0E0,0E0,0E0,0E0,0E0,0E0,0E0,0E0,0E0,0E0,0E0,0E0,0E0,0E0,0E0,0E0,0E0,0E0,0E0,0E0,0E0,0E0,0E0,0E0,0E0,0E0],"parents":[2147483647,0,0,1,1,2,2,3,3,4,4,5,5,6,6,7,7,8,8,9,9,10,10,11,11,12,12,13,13,14,14,15,15,16,16,17,17,18,18,19,19,20,20,21,21,22,22,23,23,24,24,25,25,26,26,27,27,28,28,29,29,30,30],"right_children":[2,4,6,8,10,12,14,16,18,20,22,24,26,28,30,32,34,36,38,40,42,44,46,48,50,52,54,56,58,60,62,-1,-1,-1,-1,-1,-1,-1,-1,-1,-1,-1,-1,-1,-1,-1,-1,-1,-1,-1,-1,-1,-1,-1,-1,-1,-1,-1,-1,-1,-1,-1,-1],"split_conditions":[1.047E3,2.77E2,1.054E3,3E0,7.6E1,3.442E3,1.306E3,5.2E3,6E0,4.9E1,8.47E2,7.58E2,1.7E1,1.098E3,1.662E3,2E0,2.63E2,1.11E3,2.75E2,1.7E1,6E0,6.26E2,8.9E2,7.6E1,2.925E3,2E0,6E0,3.13E2,1.632E3,1.454E3,3E0,5.0986447E2,-1.9089293E3,-5.63006E3,-8.864516E3,-1.2319877E3,2.2006404E3,-8.7310754E2,5.3288545E3,2.4838591E3,-6.1257554E3,-5.6354427E1,1.9192123E4,-2.1036436E3,-4.382303E3,6.165525E3,-1.0392703E3,4.2806978E3,-5.473543E3,7.709E3,-3.8588254E3,6.798865E2,1.0991187E4,2.1831904E4,9.158993E3,-1.645292E3,3.0225256E3,-1.278173E3,-4.6584253E3,1.8349387E3,5.3017773E3,-5.255061E2,1.2458442E3],"split_indices":[1,1,1,3,0,0,0,0,3,0,0,0,2,1,0,3,1,0,1,2,3,0,0,0,0,2,3,0,1,0,3,0,0,0,0,0,0,0,0,0,0,0,0,0,0,0,0,0,0,0,0,0,0,0,0,0,0,0,0,0,0,0,0],"split_type":[0,0,0,0,0,0,0,0,0,0,0,0,0,0,0,0,0,0,0,0,0,0,0,0,0,0,0,0,0,0,0,0,0,0,0,0,0,0,0,0,0,0,0,0,0,0,0,0,0,0,0,0,0,0,0,0,0,0,0,0,0,0,0],"sum_hessian":[1.7758E4,8.613E3,9.145E3,2.774E3,5.839E3,1.24E2,9.021E3,8.69E2,1.905E3,6.3E1,5.776E3,5.3E1,7.1E1,2.012E3,7.009E3,7.98E2,7.1E1,1.141E3,7.64E2,4.3E1,2E1,8.05E2,4.971E3,5E0,4.8E1,5.4E1,1.7E1,4.55E2,1.557E3,5.32E2,6.477E3,4.1E2,3.88E2,6.2E1,9E0,1.88E2,9.53E2,6.78E2,8.6E1,2.9E1,1.4E1,5E0,1.5E1,5.36E2,2.69E2,3.9E1,4.932E3,1E0,4E0,4.5E1,3E0,2E0,5.2E1,9E0,8E0,1.62E2,2.93E2,1.417E3,1.4E2,2.33E2,2.99E2,1.857E3,4.62E3],"tree_param":{"num_deleted":"0","num_feature":"4","num_nodes":"63","size_leaf_vector":"1"}},{"base_weights":[6.2733617E0,-1.9390854E3,4.8553228E3,-5.927377E3,8.2075195E1,1.1871933E4,-7.295776E1,-2.0822302E3,-1.0903424E4,2.4337648E4,-3.3133203E2,7.0686206E3,2.1372996E4,-7.403933E3,2.9418452E3,-8.096132E3,1.1955867E4,-1.5668065E4,-9.751873E3,1.6537883E4,2.0206043E4,2.6847495E3,-4.2317495E3,8.914072E3,-2.3377414E4,2.5939842E4,9.404129E3,-1.3215311E4,8.0382E2,9.340994E3,-7.783676E3,2.9478113E3,-1.7066061E3,2.5817039E3,-3.788509E3,-4.9126206E3,-2.8638735E3,2.8083218E2,-2.2097559E3,-8.169397E2,5.2863687E3,-7.9637054E1,2.4243442E3,-2.658439E3,-1.2721769E2,2.814785E3,4.146302E2,-5.7404346E3,-3.9122427E2,4.0966187E3,7.378764E3,9.338537E1,4.763318E3,-4.312538E3,-2.0955818E3,1.5801229E3,-2.2949753E3,-2.5234792E3,2.216586E3,-2.3421248E3,6.5965717E2],"categories":[],"categories_nodes":[],"categories_segments":[],"categories_sizes":[],"default_left":[0,0,0,0,0,0,0,0,0,0,0,0,0,0,0,0,0,0,0,0,0,0,0,0,0,0,0,0,0,0,0,0,0,0,0,0,0,0,0,0,0,0,0,0,0,0,0,0,0,0,0,0,0,0,0,0,0,0,0,0,0],"id":6,"left_children":[1,3,5,7,9,11,13,15,17,19,21,23,25,27,29,31,33,35,37,-1,39,41,43,45,47,49,51,53,55,57,59,-1,-1,-1,-1,-1,-1,-1,-1,-1,-1,-1,-1,-1,-1,-1,-1,-1,-1,-1,-1,-1,-1,-1,-1,-1,-1,-1,-1,-1,-1],"loss_changes":[1.6753256E11,1.0217338E11,1.7583926E11,8.154399E10,8.436882E10,9.559445E10,6.60609E10,2.0322032E11,1.0041541E10,3.232238E10,9.733475E10,7.8588805E10,3.8236684E10,4.155589E10,1.4543997E11,1.6936436E10,2.1496906E10,3.9670907E9,2.1703557E10,0E0,2.022146E10,1.3575541E11,1.17534015E11,4.6423155E10,9.068913E9,2.9668835E10,2.5235063E10,1.1427643E10,3.1635116E10,5.089773E10,3.450511E10,0E0,0E0,0E0,0E0,0E0,0E0,0E0,0E0,0E0,0E0,0E0,0E0,0E0,0E0,0E0,0E0,0E0,0E0,0E0,0E0,0E0,0E0,0E0,0E0,0E0,0E0,0E0,0E0,0E0,0E0],"parents":[2147483647,0,0,1,1,2,2,3,3,4,4,5,5,6,6,7,7,8,8,9,9,10,10,11,11,12,12,13,13,14,14,15,15,16,16,17,17,18,18,20,20,21,21,22,22,23,23,24,24,25,25,26,26,27,27,28,28,29,29,30,30],"right_children":[2,4,6,8,10,12,14,16,18,20,22,24,26,28,30,32,34,36,38,-1,40,42,44,46,48,50,52,54,56,58,60,-1,-1,-1,-1,-1,-1,-1,-1,-1,-1,-1,-1,-1,-1,-1,-1,-1,-1,-1,-1,-1,-1,-1,-1,-1,-1,-1,-1,-1,-1],"split_conditions":[1.358E3,3E0,1.434E3,2E0,4E0,4.42E3,1.591E3,1E0,1.1E1,2.22E2,1.8E1,4.15E3,5.428E3,3.417E3,1.603E3,4.9E1,1.296E3,1.99E2,1.2E1,1.6537883E4,2.77E2,1.6E1,2E1,1.8E1,4.37E3,5.114E3,5.815E3,1.1E1,5.17E3,4E0,4.39E3,2.9478113E3,-1.7066061E3,2.5817039E3,-3.788509E3,-4.9126206E3,-2.8638735E3,2.8083218E2,-2.2097559E3,-8.169397E2,5.2863687E3,-7.9637054E1,2.4243442E3,-2.658439E3,-1.2721769E2,2.814785E3,4.146302E2,-5.7404346E3,-3.9122427E2,4.0966187E3,7.378764E3,9.338537E1,4.763318E3,-4.312538E3,-2.0955818E3,1.5801229E3,-2.2949753E3,-2.5234792E3,2.216586E3,-2.3421248E3,6.5965717E2],"split_indices":[1,3,1,3,3,0,1,3,2,0,2,0,0,0,1,0,1,0,2,0,1,2,2,2,0,0,0,2,0,2,0,0,0,0,0,0,0,0,0,0,0,0,0,0,0,0,0,0,0,0,0,0,0,0,0,0,0,0,0,0,0],"split_type":[0,0,0,0,0,0,0,0,0,0,0,0,0,0,0,0,0,0,0,0,0,0,0,0,0,0,0,0,0,0,0,0,0,0,0,0,0,0,0,0,0,0,0,0,0,0,0,0,0,0,0,0,0,0,0,0,0,0,0,0,0],"sum_hessian":[1.7758E4,1.2674E4,5.084E3,4.262E3,8.412E3,2.097E3,2.987E3,2.405E3,1.857E3,1.4E2,8.272E3,1.394E3,7.03E2,8.7E2,2.117E3,1.684E3,7.21E2,3.59E2,1.498E3,8E0,1.32E2,4.665E3,3.607E3,1.315E3,7.9E1,5.08E2,1.95E2,5.09E2,3.61E2,1.326E3,7.91E2,3.1E1,1.653E3,7E2,2.1E1,4.5E1,3.14E2,1.56E2,1.342E3,2.7E1,1.05E2,3.517E3,1.148E3,1.024E3,2.583E3,7.49E2,5.66E2,6.3E1,1.6E1,3.41E2,1.67E2,1.21E2,7.4E1,1.24E2,3.85E2,2.29E2,1.32E2,9.7E1,1.229E3,5.84E2,2.07E2],"tree_param":{"num_deleted":"0","num_feature":"4","num_nodes":"61","size_leaf_vector":"1"}},{"base_weights":[5.8765655E0,-1.5216201E3,4.323744E3,-4.7566436E3,1.0421641E2,1.720484E4,1.3347837E3,-1.7660593E3,-8.606996E3,4.6496292E2,-2.3046256E4,1.8100272E2,2.1589137E4,3.346619E3,-6.2290645E3,-6.65336E3,9.8087295E3,-1.0293718E4,-5.597009E3,2.1201475E4,8.680902E1,1.2350154E4,-2.6629102E4,6.053705E3,-1.6566297E4,3.011201E4,1.1331224E4,-4.44681E3,5.5469385E3,-9.372502E3,2.6418008E3,-2.295533E3,-8.416595E2,1.7890918E3,8.0360415E3,-1.7171904E3,-2.8807283E3,1.2538539E3,-1.6153306E3,1.3597817E4,3.6344185E3,2.5592033E2,-1.3523169E3,-4.7013745E3,9.288574E3,-2.451183E3,-6.4086216E3,-2.1484683E3,2.767646E3,7.1705366E3,-5.0223647E3,-7.879522E2,6.674222E3,8.825388E3,1.6251335E3,-3.4965283E2,-3.225259E3,4.50233E3,6.3626117E2,-1.4080931E3,-8.368099E3,1.2860143E4,-6.365636E2],"categories":[],"categories_nodes":[],"categories_segments":[],"categories_sizes":[],"default_left":[0,0,0,0,0,0,0,0,0,0,0,0,0,0,0,0,0,0,0,0,0,0,0,0,0,0,0,0,0,0,0,0,0,0,0,0,0,0,0,0,0,0,0,0,0,0,0,0,0,0,0,0,0,0,0,0,0,0,0,0,0,0,0],"id":7,"left_children":[1,3,5,7,9,11,13,15,17,19,21,23,25,27,29,31,33,35,37,39,41,43,45,47,49,51,53,55,57,59,61,-1,-1,-1,-1,-1,-1,-1,-1,-1,-1,-1,-1,-1,-1,-1,-1,-1,-1,-1,-1,-1,-1,-1,-1,-1,-1,-1,-1,-1,-1,-1,-1],"loss_changes":[1.1713655E11,6.900144E10,1.7866057E11,5.0511766E10,7.29356E10,6.5229308E10,5.7359307E10,1.3984842E11,9.680093E9,6.742801E10,1.732273E10,1.7803633E10,6.042049E10,5.1074367E10,2.2109692E10,2.0452671E10,1.8885165E10,8.4954153E9,2.0382722E10,2.0592083E10,6.900162E10,1.6983752E10,9.100902E9,1.7669054E10,2.1953872E10,4.2192175E10,3.2967172E10,2.064737E10,9.311552E10,4.39996E10,7.490571E10,0E0,0E0,0E0,0E0,0E0,0E0,0E0,0E0,0E0,0E0,0E0,0E0,0E0,0E0,0E0,0E0,0E0,0E0,0E0,0E0,0E0,0E0,0E0,0E0,0E0,0E0,0E0,0E0,0E0,0E0,0E0,0E0],"parents":[2147483647,0,0,1,1,2,2,3,3,4,4,5,5,6,6,7,7,8,8,9,9,10,10,11,11,12,12,13,13,14,14,15,15,16,16,17,17,18,18,19,19,20,20,21,21,22,22,23,23,24,24,25,25,26,26,27,27,28,28,29,29,30,30],"right_children":[2,4,6,8,10,12,14,16,18,20,22,24,26,28,30,32,34,36,38,40,42,44,46,48,50,52,54,56,58,60,62,-1,-1,-1,-1,-1,-1,-1,-1,-1,-1,-1,-1,-1,-1,-1,-1,-1,-1,-1,-1,-1,-1,-1,-1,-1,-1,-1,-1,-1,-1,-1,-1],"split_conditions":[1.37E3,3E0,1.393E3,2E0,3.3E1,1.259E3,1.603E3,1E0,3.388E3,4E0,1.071E3,7.58E2,1.7E1,1.1E1,4.39E3,1.1E1,5.64E3,2.355E3,3.727E3,2.22E2,1.184E3,9.16E2,6E0,1.99E2,1.372E3,2E0,1.548E3,7E0,1.2E1,4.176E3,4.399E3,-2.295533E3,-8.416595E2,1.7890918E3,8.0360415E3,-1.7171904E3,-2.8807283E3,1.2538539E3,-1.6153306E3,1.3597817E4,3.6344185E3,2.5592033E2,-1.3523169E3,-4.7013745E3,9.288574E3,-2.451183E3,-6.4086216E3,-2.1484683E3,2.767646E3,7.1705366E3,-5.0223647E3,-7.879522E2,6.674222E3,8.825388E3,1.6251335E3,-3.4965283E2,-3.225259E3,4.50233E3,6.3626117E2,-1.4080931E3,-8.368099E3,1.2860143E4,-6.365636E2],"split_indices":[1,3,1,3,2,0,1,3,0,3,0,0,2,2,0,2,0,0,0,0,1,0,3,0,1,2,0,2,2,0,0,0,0,0,0,0,0,0,0,0,0,0,0,0,0,0,0,0,0,0,0,0,0,0,0,0,0,0,0,0,0,0,0],"split_type":[0,0,0,0,0,0,0,0,0,0,0,0,0,0,0,0,0,0,0,0,0,0,0,0,0,0,0,0,0,0,0,0,0,0,0,0,0,0,0,0,0,0,0,0,0,0,0,0,0,0,0,0,0,0,0,0,0,0,0,0,0,0,0],"sum_hessian":[1.7758E4,1.3118E4,4.64E3,4.387E3,8.731E3,8.73E2,3.767E3,2.47E3,1.917E3,8.598E3,1.33E2,1.79E2,6.94E2,2.976E3,7.91E2,1.737E3,7.33E2,1.227E3,6.9E2,1.53E2,8.445E3,1.2E1,1.21E2,1.33E2,4.6E1,3.78E2,3.16E2,6.55E2,2.321E3,5.84E2,2.07E2,5.83E2,1.154E3,7.14E2,1.9E1,8.69E2,3.58E2,1.19E2,5.71E2,8E0,1.45E2,7.193E3,1.252E3,6E0,6E0,3.4E1,8.7E1,4.2E1,9.1E1,6E0,4E1,3.3E1,3.45E2,2.7E1,2.89E2,5.33E2,1.22E2,2.83E2,2.038E3,5.46E2,3.8E1,1.7E1,1.9E2],"tree_param":{"num_deleted":"0","num_feature":"4","num_nodes":"63","size_leaf_vector":"1"}},{"base_weights":[6.767523E0,-1.2728839E3,4.3650723E3,8.16298E2,-3.9388735E3,1.2695129E4,1.2031163E3,-1.9244506E3,1.0371707E4,-8.151898E3,1.6841015E1,1.4192605E3,1.4282963E4,-9.053239E3,2.913393E3,1.567508E2,-6.6625176E3,1.5671659E4,7.0443965E3,-4.887491E3,-1.6086604E4,1.4219832E3,-1.5084523E4,1.146265E4,-1.0036587E4,5.5463617E4,1.2594035E4,1.9959481E3,-2.0111977E4,6.998704E3,-5.1685024E3,-9.03014E2,3.074457E3,-2.142941E3,-7.968905E2,2.4284487E3,5.9448154E3,1.5322646E3,-5.4060083E3,-3.6450095E3,-7.567855E2,-1.5086066E3,-3.8629128E3,6.88209E-1,1.1380982E4,-2.6239664E2,-5.3296343E3,1.1022546E4,1.636207E3,-3.102562E3,1.2676415E3,1.2496667E4,4.2658506E3,-1.7902633E3,2.7184292E3,5.3068486E3,-5.790334E2,-2.6454038E3,-5.4409517E3,8.3441907E2,7.80054E3,-3.4083118E3,1.3490066E3],"categories":[],"categories_nodes":[],"categories_segments":[],"categories_sizes":[],"default_left":[0,0,0,0,0,0,0,0,0,0,0,0,0,0,0,0,0,0,0,0,0,0,0,0,0,0,0,0,0,0,0,0,0,0,0,0,0,0,0,0,0,0,0,0,0,0,0,0,0,0,0,0,0,0,0,0,0,0,0,0,0,0,0],"id":8,"left_children":[1,3,5,7,9,11,13,15,17,19,21,23,25,27,29,31,33,35,37,39,41,43,45,47,49,51,53,55,57,59,61,-1,-1,-1,-1,-1,-1,-1,-1,-1,-1,-1,-1,-1,-1,-1,-1,-1,-1,-1,-1,-1,-1,-1,-1,-1,-1,-1,-1,-1,-1,-1,-1],"loss_changes":[9.904948E10,7.6470125E10,1.0615833E11,2.0162267E11,1.0052656E11,1.9835486E10,5.1299324E10,5.8998637E10,3.0150574E10,7.558142E10,6.6056733E10,1.5992711E10,6.6905227E10,5.1115594E10,8.277692E10,2.956377E11,1.9773104E10,3.2422593E10,2.240571E10,3.0413763E10,2.3323476E10,2.2415126E11,4.2169156E10,1.0149081E10,5.9270047E9,7.772594E9,2.0228506E10,2.528094E10,9.846366E9,1.5045778E11,1.19215915E11,0E0,0E0,0E0,0E0,0E0,0E0,0E0,0E0,0E0,0E0,0E0,0E0,0E0,0E0,0E0,0E0,0E0,0E0,0E0,0E0,0E0,0E0,0E0,0E0,0E0,0E0,0E0,0E0,0E0,0E0,0E0,0E0],"parents":[2147483647,0,0,1,1,2,2,3,3,4,4,5,5,6,6,7,7,8,8,9,9,10,10,11,11,12,12,13,13,14,14,15,15,16,16,17,17,18,18,19,19,20,20,21,21,22,22,23,23,24,24,25,25,26,26,27,27,28,28,29,29,30,30],"right_children":[2,4,6,8,10,12,14,16,18,20,22,24,26,28,30,32,34,36,38,40,42,44,46,48,50,52,54,56,58,60,62,-1,-1,-1,-1,-1,-1,-1,-1,-1,-1,-1,-1,-1,-1,-1,-1,-1,-1,-1,-1,-1,-1,-1,-1,-1,-1,-1,-1,-1,-1,-1,-1],"split_conditions":[4.594E3,1.8E1,4.965E3,1.6E1,2.2E1,1.89E2,5.114E3,1.2E1,1.86E3,6E0,4.399E3,8.4E1,2.55E2,5.034E3,5.653E3,1.1E1,8.56E2,1.454E3,1.648E3,3.92E2,1.631E3,4.39E3,6E0,4.616E3,4.823E3,4.925E3,3.12E2,4E0,1.079E3,5.616E3,5.815E3,-9.03014E2,3.074457E3,-2.142941E3,-7.968905E2,2.4284487E3,5.9448154E3,1.5322646E3,-5.4060083E3,-3.6450095E3,-7.567855E2,-1.5086066E3,-3.8629128E3,6.88209E-1,1.1380982E4,-2.6239664E2,-5.3296343E3,1.1022546E4,1.636207E3,-3.102562E3,1.2676415E3,1.2496667E4,4.2658506E3,-1.7902633E3,2.7184292E3,5.3068486E3,-5.790334E2,-2.6454038E3,-5.4409517E3,8.3441907E2,7.80054E3,-3.4083118E3,1.3490066E3],"split_indices":[0,2,0,2,2,1,0,2,0,3,0,1,1,0,0,2,1,0,1,0,0,0,3,0,0,0,1,3,1,0,0,0,0,0,0,0,0,0,0,0,0,0,0,0,0,0,0,0,0,0,0,0,0,0,0,0,0,0,0,0,0,0,0],"split_type":[0,0,0,0,0,0,0,0,0,0,0,0,0,0,0,0,0,0,0,0,0,0,0,0,0,0,0,0,0,0,0,0,0,0,0,0,0,0,0,0,0,0,0,0,0,0,0,0,0,0,0,0,0,0,0,0,0,0,0,0,0,0,0],"sum_hessian":[1.7758E4,1.3728E4,4.03E3,7.697E3,6.031E3,1.108E3,2.922E3,5.982E3,1.715E3,2.92E3,3.111E3,1.37E2,9.71E2,4.17E2,2.505E3,4.157E3,1.825E3,6.6E2,1.055E3,2.07E3,8.5E2,2.847E3,2.64E2,7.3E1,6.4E1,3.7E1,9.34E2,2.09E2,2.08E2,1.664E3,8.41E2,3.181E3,9.76E2,7.25E2,1.1E3,5.29E2,1.31E2,1.037E3,1.8E1,1.57E2,1.913E3,2.34E2,6.16E2,2.777E3,7E1,1.21E2,1.43E2,4E0,6.9E1,4.8E1,1.6E1,3E1,7E0,4.1E1,8.93E2,3.4E1,1.75E2,1.07E2,1.01E2,1.53E3,1.34E2,4.21E2,4.2E2],"tree_param":{"num_deleted":"0","num_feature":"4","num_nodes":"63","size_leaf_vector":"1"}},{"base_weights":[7.1873174E0,-2.1203418E3,2.0109625E3,5.8007275E3,-2.9612E3,3.8035426E4,1.51162E3,-3.7021477E3,1.4625545E4,2.2559879E4,-3.2156296E3,2.4008477E4,4.802737E4,3.6955884E3,-1.4312218E3,2.4939807E4,-5.439715E3,1.2465198E4,4.632903E4,-1.0723746E3,6.636303E4,-8.17946E3,-2.262409E3,-1.1753602E4,2.7897537E4,4.2560848E4,7.181324E4,1.1925599E3,1.1319116E4,-9.118915E3,1.4121187E3,5.7507534E3,-5.8967344E3,-3.1967996E3,-7.178066E2,3.4762212E3,7.936817E2,1.2134443E4,-5.7830845E3,6.6549426E2,-5.027496E3,2.7396094E2,1.6973459E4,-1.4341005E3,-5.153368E3,1.01416205E3,-7.5469116E2,4.3250117E3,-4.550869E3,6.218388E3,-3.1624941E3,3.2887448E2,8.783995E3,1.6285361E4,3.1660542E3,5.504594E2,-1.7767782E3,1.1026249E3,3.0672166E3,-2.495781E3,6.84302E1,4.869978E2,-2.1373237E3],"categories":[],"categories_nodes":[],"categories_segments":[],"categories_sizes":[],"default_left":[0,0,0,0,0,0,0,0,0,0,0,0,0,0,0,0,0,0,0,0,0,0,0,0,0,0,0,0,0,0,0,0,0,0,0,0,0,0,0,0,0,0,0,0,0,0,0,0,0,0,0,0,0,0,0,0,0,0,0,0,0,0,0],"id":9,"left_children":[1,3,5,7,9,11,13,15,17,19,21,23,25,27,29,31,33,35,37,39,41,43,45,47,49,51,53,55,57,59,61,-1,-1,-1,-1,-1,-1,-1,-1,-1,-1,-1,-1,-1,-1,-1,-1,-1,-1,-1,-1,-1,-1,-1,-1,-1,-1,-1,-1,-1,-1,-1,-1],"loss_changes":[7.571248E10,5.7390694E10,1.6446577E11,6.940731E10,5.064253E10,1.6366502E10,5.799035E10,1.9992824E10,2.8804932E10,7.977904E10,3.64718E10,7.8382633E9,6.3054316E9,9.881168E10,8.403783E10,5.621855E9,7.299454E9,1.6764105E10,3.0893978E10,5.483665E9,3.2355353E10,2.185442E10,7.1723246E10,2.6952046E9,7.33338E9,3.3200292E9,5.1693445E9,6.1319238E10,2.976822E10,3.300134E10,3.476388E10,0E0,0E0,0E0,0E0,0E0,0E0,0E0,0E0,0E0,0E0,0E0,0E0,0E0,0E0,0E0,0E0,0E0,0E0,0E0,0E0,0E0,0E0,0E0,0E0,0E0,0E0,0E0,0E0,0E0,0E0,0E0,0E0],"parents":[2147483647,0,0,1,1,2,2,3,3,4,4,5,5,6,6,7,7,8,8,9,9,10,10,11,11,12,12,13,13,14,14,15,15,16,16,17,17,18,18,19,19,20,20,21,21,22,22,23,23,24,24,25,25,26,26,27,27,28,28,29,29,30,30],"right_children":[2,4,6,8,10,12,14,16,18,20,22,24,26,28,30,32,34,36,38,40,42,44,46,48,50,52,54,56,58,60,62,-1,-1,-1,-1,-1,-1,-1,-1,-1,-1,-1,-1,-1,-1,-1,-1,-1,-1,-1,-1,-1,-1,-1,-1,-1,-1,-1,-1,-1,-1,-1,-1],"split_conditions":[1.047E3,7.8E1,1.054E3,6.7E1,7.6E1,3.442E3,1.8E1,5.2E2,5.581E3,4.9E1,9.43E2,7.58E2,2.3E1,1.6E1,2E1,2.2E1,1.404E3,6E0,5.653E3,6E0,6E0,9.96E2,1.86E3,7.6E1,2.925E3,2E0,5.653E3,1.3E1,1.361E3,1.527E3,3.2E1,5.7507534E3,-5.8967344E3,-3.1967996E3,-7.178066E2,3.4762212E3,7.936817E2,1.2134443E4,-5.7830845E3,6.6549426E2,-5.027496E3,2.7396094E2,1.6973459E4,-1.4341005E3,-5.153368E3,1.01416205E3,-7.5469116E2,4.3250117E3,-4.550869E3,6.218388E3,-3.1624941E3,3.2887448E2,8.783995E3,1.6285361E4,3.1660542E3,5.504594E2,-1.7767782E3,1.1026249E3,3.0672166E3,-2.495781E3,6.84302E1,4.869978E2,-2.1373237E3],"split_indices":[1,1,1,1,0,0,2,0,0,0,0,0,2,2,2,2,0,3,0,3,3,1,0,0,0,2,0,2,1,1,2,0,0,0,0,0,0,0,0,0,0,0,0,0,0,0,0,0,0,0,0,0,0,0,0,0,0,0,0,0,0,0,0],"split_type":[0,0,0,0,0,0,0,0,0,0,0,0,0,0,0,0,0,0,0,0,0,0,0,0,0,0,0,0,0,0,0,0,0,0,0,0,0,0,0,0,0,0,0,0,0,0,0,0,0,0,0,0,0,0,0,0,0,0,0,0,0,0,0],"sum_hessian":[1.7758E4,8.613E3,9.145E3,8.26E2,7.787E3,1.24E2,9.021E3,3.98E2,4.28E2,7.6E1,7.711E3,5.3E1,7.1E1,5.178E3,3.843E3,2.2E1,3.76E2,4.02E2,2.6E1,5E1,2.6E1,1.241E3,6.47E3,5E0,4.8E1,6E1,1.1E1,3.899E3,1.279E3,1.037E3,2.806E3,2.1E1,1E0,5.5E1,3.21E2,2.54E2,1.48E2,2.2E1,4E0,4.3E1,7E0,6E0,2E1,1.175E3,6.6E1,1.105E3,5.365E3,1E0,4E0,4.5E1,3E0,2E0,5.8E1,9E0,2E0,3.377E3,5.22E2,5.24E2,7.55E2,7.65E2,2.72E2,2.588E3,2.18E2],"tree_param":{"num_deleted":"0","num_feature":"4","num_nodes":"63","size_leaf_vector":"1"}},{"base_weights":[8.191019E0,-6.6573936E3,5.843495E2,-1.7098151E3,-1.4146147E4,2.803373E3,-1.9674294E3,-2.7344502E3,2.0310908E4,-2.3179984E4,-9.615632E3,6.0936426E2,8.572753E3,-6.952163E3,9.053923E1,-3.8840906E2,-1.1835326E4,-3.7413984E3,2.1871041E4,-2.6627707E4,1.3452777E3,-3.2229236E3,-1.5407875E4,3.85265E3,-5.1540596E3,7.3483306E3,1.474101E4,-6.1623857E3,-3.2262727E4,9.44071E2,-1.0602426E4,-1.9172181E3,4.320477E2,-1.2614879E3,-6.5006284E3,5.474263E3,1.6262386E3,-4.0965664E3,-6.596001E3,2.1318618E3,-4.5594546E3,2.5343093E3,-1.4569076E3,-3.5511309E3,6.4107637E0,-3.886508E2,2.789758E3,-1.137372E3,3.3868364E3,1.5726846E3,-4.56984E3,4.8459487E3,5.7544794E2,-1.329212E3,9.165266E3,-6.636905E3,-3.0724063E2,6.1259904E0,2.6311326E3,-9.107925E2,-3.5804973E3],"categories":[],"categories_nodes":[],"categories_segments":[],"categories_sizes":[],"default_left":[0,0,0,0,0,0,0,0,0,0,0,0,0,0,0,0,0,0,0,0,0,0,0,0,0,0,0,0,0,0,0,0,0,0,0,0,0,0,0,0,0,0,0,0,0,0,0,0,0,0,0,0,0,0,0,0,0,0,0,0,0],"id":10,"left_children":[1,3,5,7,9,11,13,15,17,19,21,23,25,27,29,31,33,-1,35,37,39,41,43,45,47,49,51,53,55,57,59,-1,-1,-1,-1,-1,-1,-1,-1,-1,-1,-1,-1,-1,-1,-1,-1,-1,-1,-1,-1,-1,-1,-1,-1,-1,-1,-1,-1,-1,-1],"loss_changes":[6.820614E10,5.2329153E10,9.2569715E10,1.9279393E10,2.2778618E10,1.1067695E11,7.80057E10,1.7396492E10,2.7223204E9,1.5847842E10,1.3872914E10,1.1845509E11,1.808579E10,4.421831E10,4.913949E10,1.5234341E10,1.8874632E10,0E0,2.5736335E9,5.7260524E9,5.63975E9,1.1712603E10,7.141728E9,2.3731057E11,2.6952282E10,3.147536E10,4.4734013E10,5.451849E10,1.8467062E9,5.561628E10,1.7491825E10,0E0,0E0,0E0,0E0,0E0,0E0,0E0,0E0,0E0,0E0,0E0,0E0,0E0,0E0,0E0,0E0,0E0,0E0,0E0,0E0,0E0,0E0,0E0,0E0,0E0,0E0,0E0,0E0,0E0,0E0],"parents":[2147483647,0,0,1,1,2,2,3,3,4,4,5,5,6,6,7,7,8,8,9,9,10,10,11,11,12,12,13,13,14,14,15,15,16,16,18,18,19,19,20,20,21,21,22,22,23,23,24,24,25,25,26,26,27,27,28,28,29,29,30,30],"right_children":[2,4,6,8,10,12,14,16,18,20,22,24,26,28,30,32,34,-1,36,38,40,42,44,46,48,50,52,54,56,58,60,-1,-1,-1,-1,-1,-1,-1,-1,-1,-1,-1,-1,-1,-1,-1,-1,-1,-1,-1,-1,-1,-1,-1,-1,-1,-1,-1,-1,-1,-1],"split_conditions":[3E0,1E0,1.8E1,5.596E3,8.82E2,1.6E1,2E1,4.823E3,7.7E1,2E0,1.085E3,1.2E1,5.114E3,5.892E3,3.2E1,2.48E2,6E0,-3.7413984E3,1.072E3,3E0,3.9E2,8.9E2,2E0,1.1E1,5.815E3,5.034E3,5.428E3,5.843E3,1.549E3,3E1,3.704E3,-1.9172181E3,4.320477E2,-1.2614879E3,-6.5006284E3,5.474263E3,1.6262386E3,-4.0965664E3,-6.596001E3,2.1318618E3,-4.5594546E3,2.5343093E3,-1.4569076E3,-3.5511309E3,6.4107637E0,-3.886508E2,2.789758E3,-1.137372E3,3.3868364E3,1.5726846E3,-4.56984E3,4.8459487E3,5.7544794E2,-1.329212E3,9.165266E3,-6.636905E3,-3.0724063E2,6.1259904E0,2.6311326E3,-9.107925E2,-3.5804973E3],"split_indices":[2,2,2,0,1,2,2,0,1,2,1,2,0,0,2,0,3,0,1,3,1,0,2,2,0,0,0,0,1,2,0,0,0,0,0,0,0,0,0,0,0,0,0,0,0,0,0,0,0,0,0,0,0,0,0,0,0,0,0,0,0],"split_type":[0,0,0,0,0,0,0,0,0,0,0,0,0,0,0,0,0,0,0,0,0,0,0,0,0,0,0,0,0,0,0,0,0,0,0,0,0,0,0,0,0,0,0,0,0,0,0,0,0,0,0,0,0,0,0,0,0,0,0,0,0],"sum_hessian":[1.7758E4,1.412E3,1.6346E4,8.51E2,5.61E2,8.743E3,7.603E3,8.14E2,3.7E1,1.86E2,3.75E2,6.335E3,2.408E3,2.221E3,5.382E3,6.48E2,1.66E2,1E0,3.6E1,1.63E2,2.3E1,1.79E2,1.96E2,4.054E3,2.281E3,2.011E3,3.97E2,2.155E3,6.6E1,4.985E3,3.97E2,1.4E2,5.08E2,1.32E2,3.4E1,2.5E1,1.1E1,8.5E1,7.8E1,1.7E1,6E0,3.6E1,1.43E2,1.7E2,2.6E1,2.576E3,1.478E3,2.228E3,5.3E1,1.978E3,3.3E1,2.2E2,1.77E2,2.136E3,1.9E1,6.4E1,2E0,4.639E3,3.46E2,2.18E2,1.79E2],"tree_param":{"num_deleted":"0","num_feature":"4","num_nodes":"61","size_leaf_vector":"1"}},{"base_weights":[5.6876564E0,-2.544553E3,1.2733909E3,7.2599915E2,-6.6411406E3,-4.762674E3,2.2026602E3,-4.197493E3,1.1142728E4,-8.0213145E3,-3.5725227E3,1.7976055E4,-6.826551E3,4.051062E3,-1.06535E3,-3.0264897E3,-1.2786675E4,7.0730317E3,1.8272814E4,-6.967411E3,-1.2291364E4,5.5421344E4,-5.3579595E3,-8.668459E3,4.7295734E4,-4.0542275E3,-1.3697775E4,1.6591107E4,3.6403103E3,9.98618E3,-2.9318508E3,-1.0606866E3,4.105852E2,-2.818865E3,1.2171005E3,1.6371088E3,-2.8087356E3,1.1871389E4,3.401768E3,-1.5304276E3,-1.6919493E2,-9.2843945E2,-3.805118E3,1.2796079E4,8.306119E3,-3.4069022E2,-1.861223E3,1.3383089E2,-2.7741785E3,1.1032813E4,1.851664E3,-1.6849951E3,1.3094076E3,-5.81756E3,-1.1119191E3,9.432394E3,2.234752E3,-5.7102905E3,7.7587244E2,4.6570563E2,6.788522E3,2.0124315E2,-1.445058E3],"categories":[],"categories_nodes":[],"categories_segments":[],"categories_sizes":[],"default_left":[0,0,0,0,0,0,0,0,0,0,0,0,0,0,0,0,0,0,0,0,0,0,0,0,0,0,0,0,0,0,0,0,0,0,0,0,0,0,0,0,0,0,0,0,0,0,0,0,0,0,0,0,0,0,0,0,0,0,0,0,0,0,0],"id":11,"left_children":[1,3,5,7,9,11,13,15,17,19,21,23,25,27,29,31,33,35,37,39,41,43,45,47,49,51,53,55,57,59,61,-1,-1,-1,-1,-1,-1,-1,-1,-1,-1,-1,-1,-1,-1,-1,-1,-1,-1,-1,-1,-1,-1,-1,-1,-1,-1,-1,-1,-1,-1,-1,-1],"loss_changes":[5.7417167E10,7.901343E10,6.6551595E10,1.682671E11,1.1059167E10,7.441281E10,6.2107685E10,2.237044E10,3.0425948E10,8.037253E9,8.603541E10,1.0352951E11,2.7603988E10,3.3765188E10,7.6661146E10,2.2702481E10,6.67485E9,1.5901977E10,1.8827387E10,6.071214E9,1.824967E10,1.9625574E8,1.1397145E10,3.4097628E9,1.8344608E10,4.8058696E10,5.2066198E10,3.3920528E10,4.9054114E10,9.843361E10,5.375732E10,0E0,0E0,0E0,0E0,0E0,0E0,0E0,0E0,0E0,0E0,0E0,0E0,0E0,0E0,0E0,0E0,0E0,0E0,0E0,0E0,0E0,0E0,0E0,0E0,0E0,0E0,0E0,0E0,0E0,0E0,0E0,0E0],"parents":[2147483647,0,0,1,1,2,2,3,3,4,4,5,5,6,6,7,7,8,8,9,9,10,10,11,11,12,12,13,13,14,14,15,15,16,16,17,17,18,18,19,19,20,20,21,21,22,22,23,23,24,24,25,25,26,26,27,27,28,28,29,29,30,30],"right_children":[2,4,6,8,10,12,14,16,18,20,22,24,26,28,30,32,34,36,38,40,42,44,46,48,50,52,54,56,58,60,62,-1,-1,-1,-1,-1,-1,-1,-1,-1,-1,-1,-1,-1,-1,-1,-1,-1,-1,-1,-1,-1,-1,-1,-1,-1,-1,-1,-1,-1,-1,-1,-1],"split_conditions":[3E0,2E0,8.47E2,1E0,3.704E3,8.6E1,6E0,2.9E1,1.25E3,1.4E3,3.727E3,4.9E1,6.26E2,4E0,1.662E3,1.7E1,3.4E1,1.166E3,1.267E3,1.367E3,1.835E3,2.1E1,1.8E1,2.6E1,7.6E1,4.23E2,6.77E2,8.9E2,5E0,1.426E3,1.8E1,-1.0606866E3,4.105852E2,-2.818865E3,1.2171005E3,1.6371088E3,-2.8087356E3,1.1871389E4,3.401768E3,-1.5304276E3,-1.6919493E2,-9.2843945E2,-3.805118E3,1.2796079E4,8.306119E3,-3.4069022E2,-1.861223E3,1.3383089E2,-2.7741785E3,1.1032813E4,1.851664E3,-1.6849951E3,1.3094076E3,-5.81756E3,-1.1119191E3,9.432394E3,2.234752E3,-5.7102905E3,7.7587244E2,4.6570563E2,6.788522E3,2.0124315E2,-1.445058E3],"split_indices":[3,3,0,3,0,0,3,2,1,1,0,0,0,3,0,2,2,1,1,1,0,2,2,0,0,0,0,0,3,0,2,0,0,0,0,0,0,0,0,0,0,0,0,0,0,0,0,0,0,0,0,0,0,0,0,0,0,0,0,0,0,0,0],"split_type":[0,0,0,0,0,0,0,0,0,0,0,0,0,0,0,0,0,0,0,0,0,0,0,0,0,0,0,0,0,0,0,0,0,0,0,0,0,0,0,0,0,0,0,0,0,0,0,0,0,0,0,0,0,0,0,0,0,0,0,0,0,0,0],"sum_hessian":[1.7758E4,5.896E3,1.1862E4,3.279E3,2.617E3,1.582E3,1.028E4,2.227E3,1.052E3,1.804E3,8.13E2,1.31E2,1.451E3,6.566E3,3.714E3,1.961E3,2.66E2,6.71E2,3.81E2,1.449E3,3.55E2,2.3E1,7.9E2,6.9E1,6.2E1,1.035E3,4.16E2,2.07E2,6.359E3,5.36E2,3.178E3,1.354E3,6.07E2,2.49E2,1.7E1,6.38E2,3.3E1,1E1,3.71E2,1.303E3,1.46E2,1.67E2,1.88E2,1.2E1,1.1E1,4.11E2,3.79E2,2.5E1,4.4E1,5.1E1,1.1E1,7.33E2,3.02E2,1.43E2,2.73E2,3E1,1.77E2,4.6E1,6.313E3,4.07E2,1.29E2,1.658E3,1.52E3],"tree_param":{"num_deleted":"0","num_feature":"4","num_nodes":"63","size_leaf_vector":"1"}},{"base_weights":[6.801483E0,-5.286965E3,4.64383E2,-1.291581E3,-1.1334616E4,2.1198694E3,-1.4393567E3,-2.1007808E3,1.6097615E4,-1.8418523E4,-7.781358E3,4.155332E2,6.601627E3,-4.2078335E3,1.1457657E3,1.8569468E3,-6.985259E3,3.0673484E4,1.1816823E4,-2.1112613E4,7.585319E2,7.0584604E3,-9.373393E3,2.9798103E3,-4.141241E3,1.3013317E4,5.5668936E3,-2.321058E3,-9.051785E3,2.3583355E4,-2.7356982E2,-8.391829E2,2.1006414E3,1.4958947E3,-1.5780046E3,8.980695E3,2.6309585E3,5.0766797E2,4.5804487E3,-3.6326099E3,-6.636259E3,5.9793296E3,-9.655412E2,5.170095E3,-1.3858597E3,-2.0125039E3,3.417838E3,-3.126556E2,2.1787285E3,-1.6099028E3,-3.0003802E2,9.09459E2,7.253513E3,1.3088857E3,-4.928021E2,2.3394128E3,-6.3138947E2,-2.0250885E3,1.4054296E3,3.0293652E3,6.1890444E3,1.4165372E3,-3.7991476E2],"categories":[],"categories_nodes":[],"categories_segments":[],"categories_sizes":[],"default_left":[0,0,0,0,0,0,0,0,0,0,0,0,0,0,0,0,0,0,0,0,0,0,0,0,0,0,0,0,0,0,0,0,0,0,0,0,0,0,0,0,0,0,0,0,0,0,0,0,0,0,0,0,0,0,0,0,0,0,0,0,0,0,0],"id":12,"left_children":[1,3,5,7,9,11,13,15,17,19,21,23,25,27,29,31,33,35,37,39,41,43,45,47,49,51,53,55,57,59,61,-1,-1,-1,-1,-1,-1,-1,-1,-1,-1,-1,-1,-1,-1,-1,-1,-1,-1,-1,-1,-1,-1,-1,-1,-1,-1,-1,-1,-1,-1,-1,-1],"loss_changes":[4.3020603E10,3.4127241E10,5.1522503E10,1.2022596E10,1.4002749E10,6.6787615E10,5.4425526E10,1.576809E10,2.0085955E9,9.677312E9,8.949357E9,7.404744E10,1.5909798E10,3.3539052E10,1.25258605E11,2.3646978E10,4.83583E9,1.4036311E9,3.1303987E9,5.235294E9,4.050871E9,9.904879E9,6.372217E9,1.4580741E11,2.3542608E10,6.558999E10,1.6313741E10,3.101825E10,1.783504E10,1.4064681E10,4.427027E10,0E0,0E0,0E0,0E0,0E0,0E0,0E0,0E0,0E0,0E0,0E0,0E0,0E0,0E0,0E0,0E0,0E0,0E0,0E0,0E0,0E0,0E0,0E0,0E0,0E0,0E0,0E0,0E0,0E0,0E0,0E0,0E0],"parents":[2147483647,0,0,1,1,2,2,3,3,4,4,5,5,6,6,7,7,8,8,9,9,10,10,11,11,12,12,13,13,14,14,15,15,16,16,17,17,18,18,19,19,20,20,21,21,22,22,23,23,24,24,25,25,26,26,27,27,28,28,29,29,30,30],"right_children":[2,4,6,8,10,12,14,16,18,20,22,24,26,28,30,32,34,36,38,40,42,44,46,48,50,52,54,56,58,60,62,-1,-1,-1,-1,-1,-1,-1,-1,-1,-1,-1,-1,-1,-1,-1,-1,-1,-1,-1,-1,-1,-1,-1,-1,-1,-1,-1,-1,-1,-1,-1,-1],"split_conditions":[3E0,1E0,1.8E1,5.596E3,8.82E2,1.6E1,2.2E1,2.64E3,3E0,2E0,8.93E2,1.2E1,2E0,6E0,2.3E1,1.149E3,1.11E2,8.74E2,6E0,6E0,1.79E2,2E0,5.815E3,1.1E1,8.56E2,1.7E1,1.7E1,1.11E2,5.616E3,1.072E3,2.5E1,-8.391829E2,2.1006414E3,1.4958947E3,-1.5780046E3,8.980695E3,2.6309585E3,5.0766797E2,4.5804487E3,-3.6326099E3,-6.636259E3,5.9793296E3,-9.655412E2,5.170095E3,-1.3858597E3,-2.0125039E3,3.417838E3,-3.126556E2,2.1787285E3,-1.6099028E3,-3.0003802E2,9.09459E2,7.253513E3,1.3088857E3,-4.928021E2,2.3394128E3,-6.3138947E2,-2.0250885E3,1.4054296E3,3.0293652E3,6.1890444E3,1.4165372E3,-3.7991476E2],"split_indices":[2,2,2,0,1,2,2,0,3,2,1,2,3,3,2,0,1,1,3,3,1,3,0,2,1,2,2,1,0,1,2,0,0,0,0,0,0,0,0,0,0,0,0,0,0,0,0,0,0,0,0,0,0,0,0,0,0,0,0,0,0,0,0],"split_type":[0,0,0,0,0,0,0,0,0,0,0,0,0,0,0,0,0,0,0,0,0,0,0,0,0,0,0,0,0,0,0,0,0,0,0,0,0,0,0,0,0,0,0,0,0,0,0,0,0,0,0,0,0,0,0,0,0,0,0,0,0,0,0],"sum_hessian":[1.7758E4,1.412E3,1.6346E4,8.51E2,5.61E2,8.743E3,7.603E3,8.14E2,3.7E1,1.86E2,3.75E2,6.335E3,2.408E3,3.671E3,3.932E3,4.5E2,3.64E2,7E0,3E1,1.63E2,2.3E1,3.6E1,3.39E2,4.054E3,2.281E3,3.33E2,2.075E3,2.643E3,1.028E3,2.33E2,3.699E3,2.65E2,1.85E2,2.1E1,3.43E2,3E0,4E0,1.7E1,1.3E1,1.33E2,3E1,3E0,2E1,1.5E1,2.1E1,3.31E2,8E0,2.576E3,1.478E3,9.19E2,1.362E3,2.45E2,8.8E1,1.85E3,2.25E2,1.48E2,2.495E3,9.64E2,6.4E1,1.1E2,1.23E2,6.69E2,3.03E3],"tree_param":{"num_deleted":"0","num_feature":"4","num_nodes":"63","size_leaf_vector":"1"}},{"base_weights":[7.5865316E0,-2.0864407E3,1.0485096E3,4.791874E2,-5.300029E3,1.4349027E4,7.936291E2,-3.45613E3,8.805311E3,-6.3699004E3,-2.9211365E3,3.43645E4,9.095878E3,-3.9071804E3,1.6140092E3,1.5985368E4,-3.809809E3,3.7838467E3,1.2816014E4,-5.958949E3,-1.4044752E4,4.3537582E4,-4.3270635E3,1.1982845E4,2.560307E4,-9.116152E3,1.710044E4,1.4230508E4,-5.4020317E3,1.6989729E4,1.3198282E3,4.929865E3,-2.4942878E3,-8.1217035E2,3.8011062E3,2.3655227E3,-3.7241833E1,2.1739653E3,5.3958228E3,-1.2995239E3,4.393876E2,-1.7443925E3,-3.7262754E3,1.0367472E4,6.183606E3,2.104978E2,-1.2035482E3,-9.716694E2,9.518515E3,-6.5290283E3,1.0523406E3,8.505139E3,1.8483531E3,-1.3472678E3,7.460224E3,-9.211621E2,-3.9059907E3,4.6658506E3,-1.0602466E3,3.230714E2,-3.2498777E3],"categories":[],"categories_nodes":[],"categories_segments":[],"categories_sizes":[],"default_left":[0,0,0,0,0,0,0,0,0,0,0,0,0,0,0,0,0,0,0,0,0,0,0,0,0,0,0,0,0,0,0,0,0,0,0,0,0,0,0,0,0,0,0,0,0,0,0,0,0,0,0,0,0,0,0,0,0,0,0,0,0],"id":13,"left_children":[1,3,5,7,9,11,13,15,17,19,21,23,25,27,29,31,33,35,37,39,41,43,45,-1,47,49,51,53,55,57,59,-1,-1,-1,-1,-1,-1,-1,-1,-1,-1,-1,-1,-1,-1,-1,-1,-1,-1,-1,-1,-1,-1,-1,-1,-1,-1,-1,-1,-1,-1],"loss_changes":[3.8711857E10,4.8622543E10,4.020469E10,1.0750271E11,6.64449E9,2.3134593E10,4.489924E10,1.5380748E10,2.1158502E10,5.609259E9,5.3356884E10,8.763212E9,2.6104607E10,4.6982636E10,4.481197E10,1.0169355E10,1.2614945E10,1.4979341E10,1.583172E10,7.548846E9,2.0591411E9,9.110364E8,7.200548E9,0E0,2.434515E10,1.877807E10,2.438328E10,6.4102064E10,1.789712E10,2.6408088E10,5.0530877E10,0E0,0E0,0E0,0E0,0E0,0E0,0E0,0E0,0E0,0E0,0E0,0E0,0E0,0E0,0E0,0E0,0E0,0E0,0E0,0E0,0E0,0E0,0E0,0E0,0E0,0E0,0E0,0E0,0E0,0E0],"parents":[2147483647,0,0,1,1,2,2,3,3,4,4,5,5,6,6,7,7,8,8,9,9,10,10,11,11,12,12,13,13,14,14,15,15,16,16,17,17,18,18,19,19,20,20,21,21,22,22,24,24,25,25,26,26,27,27,28,28,29,29,30,30],"right_children":[2,4,6,8,10,12,14,16,18,20,22,24,26,28,30,32,34,36,38,40,42,44,46,-1,48,50,52,54,56,58,60,-1,-1,-1,-1,-1,-1,-1,-1,-1,-1,-1,-1,-1,-1,-1,-1,-1,-1,-1,-1,-1,-1,-1,-1,-1,-1,-1,-1,-1,-1],"split_conditions":[3E0,2E0,4E0,1E0,3.704E3,8.9E2,9.43E2,4.9E1,1.072E3,1.603E3,3.727E3,2.55E2,2.886E3,8.6E1,1.071E3,1.5E1,5.815E3,3.53E2,4.689E3,1.591E3,1.404E3,2.1E1,4.15E3,1.1982845E4,1.072E3,1.3E1,4.201E3,4.9E1,8.9E2,1.184E3,3.3E1,4.929865E3,-2.4942878E3,-8.1217035E2,3.8011062E3,2.3655227E3,-3.7241833E1,2.1739653E3,5.3958228E3,-1.2995239E3,4.393876E2,-1.7443925E3,-3.7262754E3,1.0367472E4,6.183606E3,2.104978E2,-1.2035482E3,-9.716694E2,9.518515E3,-6.5290283E3,1.0523406E3,8.505139E3,1.8483531E3,-1.3472678E3,7.460224E3,-9.211621E2,-3.9059907E3,4.6658506E3,-1.0602466E3,3.230714E2,-3.2498777E3],"split_indices":[3,3,3,3,0,0,0,0,1,1,0,1,0,0,0,2,0,1,0,1,0,2,0,0,1,2,0,0,0,1,2,0,0,0,0,0,0,0,0,0,0,0,0,0,0,0,0,0,0,0,0,0,0,0,0,0,0,0,0,0,0],"split_type":[0,0,0,0,0,0,0,0,0,0,0,0,0,0,0,0,0,0,0,0,0,0,0,0,0,0,0,0,0,0,0,0,0,0,0,0,0,0,0,0,0,0,0,0,0,0,0,0,0,0,0,0,0,0,0,0,0,0,0,0,0],"sum_hessian":[1.7758E4,5.896E3,1.1862E4,3.279E3,2.617E3,2.22E2,1.164E4,2.227E3,1.052E3,1.804E3,8.13E2,4.5E1,1.77E2,1.729E3,9.911E3,3.9E1,2.188E3,4.68E2,5.84E2,1.714E3,9E1,2.3E1,7.9E2,1E1,3.5E1,5.4E1,1.23E2,1.31E2,1.598E3,1.85E2,9.726E3,3E1,9E0,2.165E3,2.3E1,1.54E2,3.14E2,5.15E2,6.9E1,1.608E3,1.06E2,4.3E1,4.7E1,1.2E1,1.1E1,1.89E2,6.01E2,1.5E1,2E1,2E1,3.4E1,2.8E1,9.5E1,6.9E1,6.2E1,1.514E3,8.4E1,1.44E2,4.1E1,9.566E3,1.6E2],"tree_param":{"num_deleted":"0","num_feature":"4","num_nodes":"61","size_leaf_vector":"1"}},{"base_weights":[8.992646E0,-1.3738477E3,1.3113956E3,1.0673143E3,-3.1201084E3,2.864366E4,9.3256116E2,1.3098607E0,9.505411E3,-2.5622551E3,-9.927984E3,2.5602302E3,3.2448932E4,5.6418975E3,-1.8388725E2,1.4663502E3,-9.7480625E3,2.2674697E4,5.1996255E3,-4.2687666E3,2.5127568E3,-5.0009717E3,-2.3488732E4,7.7423525E3,-2.285067E3,2.8128092E4,5.2730504E4,-1.35301875E4,8.1869473E3,-5.331785E3,2.053485E3,4.1382706E2,-2.603827E3,-6.6800354E2,-4.5640835E3,1.7947535E3,9.078096E3,-4.2477676E3,1.9714403E3,-1.1830184E3,-7.637148E1,1.9361611E3,-8.053846E2,-5.322209E2,-3.1954934E3,1.4258083E3,-5.782388E3,-1.4459231E3,2.5913809E3,5.9840337E3,4.18569E2,1.6195944E4,3.0967097E3,-3.3838904E3,1.3157081E3,2.3234714E3,5.408389E2,-6.7753406E2,-2.458906E3,1.3875365E3,-2.753204E2],"categories":[],"categories_nodes":[],"categories_segments":[],"categories_sizes":[],"default_left":[0,0,0,0,0,0,0,0,0,0,0,0,0,0,0,0,0,0,0,0,0,0,0,0,0,0,0,0,0,0,0,0,0,0,0,0,0,0,0,0,0,0,0,0,0,0,0,0,0,0,0,0,0,0,0,0,0,0,0,0,0],"id":14,"left_children":[1,3,5,7,9,11,13,15,17,19,21,23,25,27,29,31,33,35,37,39,41,43,45,47,-1,49,51,53,55,57,59,-1,-1,-1,-1,-1,-1,-1,-1,-1,-1,-1,-1,-1,-1,-1,-1,-1,-1,-1,-1,-1,-1,-1,-1,-1,-1,-1,-1,-1,-1],"loss_changes":[3.198603E10,3.6724E10,9.467466E10,3.2319201E10,1.90471E10,1.2323742E10,4.743629E10,4.559206E10,2.273386E10,4.022173E10,2.5271845E10,1.3205324E9,8.0688333E9,8.447546E10,8.402152E10,2.4257225E10,3.4855137E10,3.0404178E10,3.7766795E10,2.2234681E10,5.4837903E10,7.1488753E9,1.6976806E10,1.1086108E9,0E0,4.229841E9,1.7685697E10,1.394652E10,2.8688531E10,2.9873738E10,8.519969E10,0E0,0E0,0E0,0E0,0E0,0E0,0E0,0E0,0E0,0E0,0E0,0E0,0E0,0E0,0E0,0E0,0E0,0E0,0E0,0E0,0E0,0E0,0E0,0E0,0E0,0E0,0E0,0E0,0E0,0E0],"parents":[2147483647,0,0,1,1,2,2,3,3,4,4,5,5,6,6,7,7,8,8,9,9,10,10,11,11,12,12,13,13,14,14,15,15,16,16,17,17,18,18,19,19,20,20,21,21,22,22,23,23,25,25,26,26,27,27,28,28,29,29,30,30],"right_children":[2,4,6,8,10,12,14,16,18,20,22,24,26,28,30,32,34,36,38,40,42,44,46,48,-1,50,52,54,56,58,60,-1,-1,-1,-1,-1,-1,-1,-1,-1,-1,-1,-1,-1,-1,-1,-1,-1,-1,-1,-1,-1,-1,-1,-1,-1,-1,-1,-1,-1,-1],"split_conditions":[1.047E3,3.67E2,1.054E3,3.27E2,9.88E2,1.52E3,1.085E3,2.77E2,1.601E3,8.9E2,6E0,2.5E1,5.476E3,1.076E3,1.358E3,5.653E3,6E0,8.47E2,2.158E3,4.263E3,8.93E2,2.9E1,2.72E2,1.1E1,-2.285067E3,5.41E3,5.653E3,5.2E3,1.8E1,1.293E3,1.434E3,4.1382706E2,-2.603827E3,-6.6800354E2,-4.5640835E3,1.7947535E3,9.078096E3,-4.2477676E3,1.9714403E3,-1.1830184E3,-7.637148E1,1.9361611E3,-8.053846E2,-5.322209E2,-3.1954934E3,1.4258083E3,-5.782388E3,-1.4459231E3,2.5913809E3,5.9840337E3,4.18569E2,1.6195944E4,3.0967097E3,-3.3838904E3,1.3157081E3,2.3234714E3,5.408389E2,-6.7753406E2,-2.458906E3,1.3875365E3,-2.753204E2],"split_indices":[1,1,1,1,1,0,1,1,0,1,3,2,0,1,1,0,3,0,0,0,1,2,0,2,0,0,0,0,2,1,1,0,0,0,0,0,0,0,0,0,0,0,0,0,0,0,0,0,0,0,0,0,0,0,0,0,0,0,0,0,0],"split_type":[0,0,0,0,0,0,0,0,0,0,0,0,0,0,0,0,0,0,0,0,0,0,0,0,0,0,0,0,0,0,0,0,0,0,0,0,0,0,0,0,0,0,0,0,0,0,0,0,0,0,0,0,0,0,0,0,0,0,0,0,0],"sum_hessian":[1.7758E4,8.613E3,9.145E3,3.592E3,5.021E3,1.24E2,9.021E3,3.19E3,4.02E2,4.642E3,3.79E2,1.6E1,1.08E2,1.728E3,7.293E3,2.774E3,4.16E2,9.8E1,3.04E2,3.474E3,1.168E3,2.79E2,1E2,1.2E1,4E0,9.1E1,1.7E1,2.02E2,1.526E3,2.209E3,5.084E3,2.664E3,1.1E2,2.8E2,1.36E2,6.2E1,3.6E1,4.5E1,2.59E2,2.44E3,1.034E3,5.57E2,6.11E2,2.31E2,4.8E1,1.5E1,8.5E1,3E0,9E0,8.5E1,6E0,9E0,8E0,1.73E2,2.9E1,9.38E2,5.88E2,1.728E3,4.81E2,2.097E3,2.987E3],"tree_param":{"num_deleted":"0","num_feature":"4","num_nodes":"61","size_leaf_vector":"1"}},{"base_weights":[8.111166E0,-2.3484475E3,6.907272E2,-2.880929E2,-1.1639566E4,8.492965E3,-2.4803474E2,-1.8781193E3,1.5043393E4,-1.7694176E4,-7.506141E3,5.79959E3,1.7963816E4,-5.8827397E3,1.3579294E2,-6.7209174E2,-6.879343E3,9.211436E3,3.361143E4,-1.2848742E4,-2.6121035E4,8.993602E1,-1.8141148E4,-7.0294004E3,7.6811914E3,2.0254016E4,-1.7216821E3,-1.3274193E3,-1.538271E4,2.3159064E4,-1.7435818E2,-4.8546786E2,7.843649E2,-2.5305505E3,-6.584363E2,-4.521018E2,2.5966748E3,8.475249E3,1.978034E3,-2.6829875E3,3.309992E3,-3.055785E3,-5.9634385E3,2.1588276E3,-1.2187592E3,-2.866076E3,-5.6073335E3,-7.2498745E3,-1.0643352E3,9.382803E2,2.7258025E3,3.7334465E3,9.311698E3,2.149392E3,-2.3221023E3,2.3839946E2,-3.1091062E3,8.477851E2,-4.375392E3,1.970819E3,6.235675E3,-7.07139E2,1.13176796E2],"categories":[],"categories_nodes":[],"categories_segments":[],"categories_sizes":[],"default_left":[0,0,0,0,0,0,0,0,0,0,0,0,0,0,0,0,0,0,0,0,0,0,0,0,0,0,0,0,0,0,0,0,0,0,0,0,0,0,0,0,0,0,0,0,0,0,0,0,0,0,0,0,0,0,0,0,0,0,0,0,0,0,0],"id":15,"left_children":[1,3,5,7,9,11,13,15,17,19,21,23,25,27,29,31,33,35,37,39,41,43,45,47,49,51,53,55,57,59,61,-1,-1,-1,-1,-1,-1,-1,-1,-1,-1,-1,-1,-1,-1,-1,-1,-1,-1,-1,-1,-1,-1,-1,-1,-1,-1,-1,-1,-1,-1,-1,-1],"loss_changes":[2.856919E10,7.635809E10,1.0086702E11,7.964506E10,1.79862E10,3.7622956E10,2.6587552E10,1.7848953E10,3.2934806E10,1.1628093E10,3.4900468E10,2.7886322E10,1.4777246E10,3.39075E10,8.2193424E10,1.9248937E10,1.1866683E10,1.0198147E10,1.4758502E10,3.3513533E9,3.7922816E9,1.6812331E10,6.3859425E9,7.1922437E9,1.7825493E10,1.1360543E10,4.440287E9,1.9039664E10,3.2459403E10,1.6017351E10,2.826301E10,0E0,0E0,0E0,0E0,0E0,0E0,0E0,0E0,0E0,0E0,0E0,0E0,0E0,0E0,0E0,0E0,0E0,0E0,0E0,0E0,0E0,0E0,0E0,0E0,0E0,0E0,0E0,0E0,0E0,0E0,0E0,0E0],"parents":[2147483647,0,0,1,1,2,2,3,3,4,4,5,5,6,6,7,7,8,8,9,9,10,10,11,11,12,12,13,13,14,14,15,15,16,16,17,17,18,18,19,19,20,20,21,21,22,22,23,23,24,24,25,25,26,26,27,27,28,28,29,29,30,30],"right_children":[2,4,6,8,10,12,14,16,18,20,22,24,26,28,30,32,34,36,38,40,42,44,46,48,50,52,54,56,58,60,62,-1,-1,-1,-1,-1,-1,-1,-1,-1,-1,-1,-1,-1,-1,-1,-1,-1,-1,-1,-1,-1,-1,-1,-1,-1,-1,-1,-1,-1,-1,-1,-1],"split_conditions":[1.1E1,7E0,1.2E1,6E0,8E0,6E0,3.92E2,6E0,6E0,1.079E3,9E0,1.126E3,1.521E3,2.72E2,4.73E2,4.39E3,2E0,1.306E3,3.704E3,1.077E3,1.009E3,2.158E3,6E0,3.8E1,1.366E3,1.485E3,2.925E3,1.434E3,1.8E1,4.23E2,1.6E1,-4.8546786E2,7.843649E2,-2.5305505E3,-6.584363E2,-4.521018E2,2.5966748E3,8.475249E3,1.978034E3,-2.6829875E3,3.309992E3,-3.055785E3,-5.9634385E3,2.1588276E3,-1.2187592E3,-2.866076E3,-5.6073335E3,-7.2498745E3,-1.0643352E3,9.382803E2,2.7258025E3,3.7334465E3,9.311698E3,2.149392E3,-2.3221023E3,2.3839946E2,-3.1091062E3,8.477851E2,-4.375392E3,1.970819E3,6.235675E3,-7.07139E2,1.13176796E2],"split_indices":[2,2,2,2,2,3,0,3,3,1,2,0,1,0,0,0,2,0,0,1,0,0,3,1,1,1,0,1,2,0,2,0,0,0,0,0,0,0,0,0,0,0,0,0,0,0,0,0,0,0,0,0,0,0,0,0,0,0,0,0,0,0,0],"split_type":[0,0,0,0,0,0,0,0,0,0,0,0,0,0,0,0,0,0,0,0,0,0,0,0,0,0,0,0,0,0,0,0,0,0,0,0,0,0,0,0,0,0,0,0,0,0,0,0,0,0,0,0,0,0,0,0,0,0,0,0,0,0,0],"sum_hessian":[1.7758E4,3.988E3,1.377E4,3.265E3,7.23E2,1.478E3,1.2292E4,2.959E3,3.06E2,2.92E2,4.31E2,1.152E3,3.26E2,7.83E2,1.1509E4,2.385E3,5.74E2,2.34E2,7.2E1,1.87E2,1.05E2,2.52E2,1.79E2,1.47E2,1.005E3,2.92E2,3.4E1,5.3E2,2.53E2,1.52E2,1.1357E4,1.726E3,6.59E2,2.19E2,3.55E2,5.8E1,1.76E2,5.2E1,2E1,1.84E2,3E0,2.8E1,7.7E1,9.2E1,1.6E2,1.31E2,4.8E1,7E0,1.4E2,6.7E2,3.35E2,2.77E2,1.5E1,1.5E1,1.9E1,4.51E2,7.9E1,6.3E1,1.9E2,5.8E1,9.4E1,2.049E3,9.308E3],"tree_param":{"num_deleted":"0","num_feature":"4","num_nodes":"63","size_leaf_vector":"1"}},{"base_weights":[6.669739E0,-1.5813276E3,7.960496E2,3.803941E2,-4.0384956E3,1.1620674E4,5.886201E2,-2.581769E3,6.6475537E3,-3.3050632E3,-6.8221665E3,2.8684527E4,7.145629E3,-2.2661893E4,7.2315106E2,-1.7324156E3,-8.813415E3,-1.1676347E4,7.515247E3,-3.5024868E3,2.4028111E4,-7.564033E3,6.1653496E3,9.705026E3,2.1825328E4,-1.4075361E3,2.0677549E4,-2.544185E4,1.9682643E3,8.974928E2,-1.0134767E4,-6.4156116E2,3.117031E2,-6.944102E2,-2.5301162E3,3.2054012E1,-5.9502393E3,-2.0362821E3,1.6981035E3,-2.0077545E3,-6.221723E2,3.0328245E1,2.389669E4,-2.439827E3,-7.469317E2,3.9888416E3,-4.6773574E3,-4.0234353E3,6.528615E3,1.3873657E3,-6.01117E3,1.2291243E4,2.2028777E3,-1.1535145E3,-6.3196323E3,1.3033762E2,2.2275676E3,1.6894287E3,-2.5452751E3],"categories":[],"categories_nodes":[],"categories_segments":[],"categories_sizes":[],"default_left":[0,0,0,0,0,0,0,0,0,0,0,0,0,0,0,0,0,0,0,0,0,0,0,0,0,0,0,0,0,0,0,0,0,0,0,0,0,0,0,0,0,0,0,0,0,0,0,0,0,0,0,0,0,0,0,0,0,0,0],"id":16,"left_children":[1,3,5,7,9,11,13,15,17,19,21,23,25,27,29,31,33,35,37,39,41,43,45,-1,47,49,51,53,-1,55,57,-1,-1,-1,-1,-1,-1,-1,-1,-1,-1,-1,-1,-1,-1,-1,-1,-1,-1,-1,-1,-1,-1,-1,-1,-1,-1,-1,-1],"loss_changes":[2.2262755E10,2.8426727E10,2.6629706E10,6.0908225E10,5.322453E9,1.6823648E10,3.642843E10,1.1777246E10,1.6829956E10,1.1275903E10,5.297715E9,5.2010967E9,2.0630958E10,6.304338E9,2.1920438E10,9.531309E9,5.428429E9,1.0274132E10,1.7449013E10,5.2419133E9,3.4168928E10,9.113201E9,1.2682272E10,0E0,1.6990729E10,2.650421E10,2.6512607E10,7.3272566E9,0E0,2.8670358E10,8.920246E9,0E0,0E0,0E0,0E0,0E0,0E0,0E0,0E0,0E0,0E0,0E0,0E0,0E0,0E0,0E0,0E0,0E0,0E0,0E0,0E0,0E0,0E0,0E0,0E0,0E0,0E0,0E0,0E0],"parents":[2147483647,0,0,1,1,2,2,3,3,4,4,5,5,6,6,7,7,8,8,9,9,10,10,11,11,12,12,13,13,14,14,15,15,16,16,17,17,18,18,19,19,20,20,21,21,22,22,24,24,25,25,26,26,27,27,29,29,30,30],"right_children":[2,4,6,8,10,12,14,16,18,20,22,24,26,28,30,32,34,36,38,40,42,44,46,-1,48,50,52,54,-1,56,58,-1,-1,-1,-1,-1,-1,-1,-1,-1,-1,-1,-1,-1,-1,-1,-1,-1,-1,-1,-1,-1,-1,-1,-1,-1,-1,-1,-1],"split_conditions":[3E0,2E0,4E0,1E0,1.4E3,8.9E2,5E0,2.9E1,3.36E2,1.393E3,5.919E3,2.55E2,4.857E3,1.603E3,3.3E1,1.7E1,2.439E3,2.22E2,9.7E1,1.99E2,3.859E3,1.591E3,1.434E3,9.705026E3,7.58E2,4.235E3,5.034E3,3.36E2,1.9682643E3,3.1E1,1.071E3,-6.4156116E2,3.117031E2,-6.944102E2,-2.5301162E3,3.2054012E1,-5.9502393E3,-2.0362821E3,1.6981035E3,-2.0077545E3,-6.221723E2,3.0328245E1,2.389669E4,-2.439827E3,-7.469317E2,3.9888416E3,-4.6773574E3,-4.0234353E3,6.528615E3,1.3873657E3,-6.01117E3,1.2291243E4,2.2028777E3,-1.1535145E3,-6.3196323E3,1.3033762E2,2.2275676E3,1.6894287E3,-2.5452751E3],"split_indices":[3,3,3,3,1,0,3,2,0,1,0,1,0,1,2,2,0,0,1,0,0,1,1,0,0,0,0,0,0,2,0,0,0,0,0,0,0,0,0,0,0,0,0,0,0,0,0,0,0,0,0,0,0,0,0,0,0,0,0],"split_type":[0,0,0,0,0,0,0,0,0,0,0,0,0,0,0,0,0,0,0,0,0,0,0,0,0,0,0,0,0,0,0,0,0,0,0,0,0,0,0,0,0,0,0,0,0,0,0,0,0,0,0,0,0,0,0,0,0,0,0],"sum_hessian":[1.7758E4,5.896E3,1.1862E4,3.279E3,2.617E3,2.22E2,1.164E4,2.227E3,1.052E3,2.073E3,5.44E2,4.5E1,1.77E2,6.6E1,1.1574E4,1.961E3,2.66E2,4.7E1,1.005E3,2.059E3,1.4E1,5.15E2,2.9E1,1E1,3.5E1,1.09E2,6.8E1,6.1E1,5E0,1.1392E4,1.82E2,1.354E3,6.07E2,1.12E2,1.54E2,2.9E1,1.8E1,5.2E1,9.53E2,1.15E2,1.944E3,1.2E1,2E0,2.32E2,2.83E2,2E1,9E0,7E0,2.8E1,8.5E1,2.4E1,1.2E1,5.6E1,1.5E1,4.6E1,1.1126E4,2.66E2,2.2E1,1.6E2],"tree_param":{"num_deleted":"0","num_feature":"4","num_nodes":"59","size_leaf_vector":"1"}},{"base_weights":[6.782282E0,-6.5157056E2,1.8677872E3,4.502941E1,-4.7522095E3,1.3948117E4,4.0906366E2,-2.0160013E2,2.7186043E4,-1.065699E4,-2.6886501E3,5.2351377E3,1.7738744E4,1.7063875E3,-5.0805083E3,-1.0283553E3,2.644871E3,-4.1838086E3,4.538711E4,2.9170084E2,-1.1948653E4,3.2945168E3,-5.838863E3,2.0037688E4,-3.7626018E3,2.7659666E4,1.4958423E4,-3.3854062E3,2.951759E3,-3.9283035E3,-1.4493629E4,1.7549051E2,-4.7833292E2,1.1198795E3,-1.1563743E3,1.4030054E3,-4.776577E3,5.673814E3,1.6839977E4,7.921862E2,-7.145019E3,-1.4795338E3,-2.9662153E3,-1.0246434E3,2.0107643E3,-2.1299226E3,-3.614458E2,1.3249684E3,5.999636E3,-2.6497534E3,1.6475518E3,2.562362E3,1.0716269E4,2.2800447E3,5.338923E3,-3.8396274E3,-4.111257E2,2.1210857E3,3.8742136E2,-9.031147E2,3.760388E3,2.8676963E3,-3.609966E3],"categories":[],"categories_nodes":[],"categories_segments":[],"categories_sizes":[],"default_left":[0,0,0,0,0,0,0,0,0,0,0,0,0,0,0,0,0,0,0,0,0,0,0,0,0,0,0,0,0,0,0,0,0,0,0,0,0,0,0,0,0,0,0,0,0,0,0,0,0,0,0,0,0,0,0,0,0,0,0,0,0,0,0],"id":17,"left_children":[1,3,5,7,9,11,13,15,17,19,21,23,25,27,29,31,33,35,37,39,41,43,45,47,49,51,53,55,57,59,61,-1,-1,-1,-1,-1,-1,-1,-1,-1,-1,-1,-1,-1,-1,-1,-1,-1,-1,-1,-1,-1,-1,-1,-1,-1,-1,-1,-1,-1,-1,-1,-1],"loss_changes":[2.1759506E10,3.7474697E10,8.177736E10,7.5076166E10,2.3183516E10,1.6420962E10,2.9506966E10,2.6160036E10,5.7857335E10,6.9755003E9,2.6651808E10,2.0453386E10,9.185255E9,2.125927E10,8.5329736E9,2.2383043E10,6.2324752E10,8.5505946E9,3.9884423E10,7.1456614E9,5.675266E9,2.7817744E10,1.7940693E10,7.5499827E9,1.1037531E10,2.817962E10,1.1137835E10,1.3817604E10,2.0892787E10,9.522491E9,9.076623E9,0E0,0E0,0E0,0E0,0E0,0E0,0E0,0E0,0E0,0E0,0E0,0E0,0E0,0E0,0E0,0E0,0E0,0E0,0E0,0E0,0E0,0E0,0E0,0E0,0E0,0E0,0E0,0E0,0E0,0E0,0E0,0E0],"parents":[2147483647,0,0,1,1,2,2,3,3,4,4,5,5,6,6,7,7,8,8,9,9,10,10,11,11,12,12,13,13,14,14,15,15,16,16,17,17,18,18,19,19,20,20,21,21,22,22,23,23,24,24,25,25,26,26,27,27,28,28,29,29,30,30],"right_children":[2,4,6,8,10,12,14,16,18,20,22,24,26,28,30,32,34,36,38,40,42,44,46,48,50,52,54,56,58,60,62,-1,-1,-1,-1,-1,-1,-1,-1,-1,-1,-1,-1,-1,-1,-1,-1,-1,-1,-1,-1,-1,-1,-1,-1,-1,-1,-1,-1,-1,-1,-1,-1],"split_conditions":[1.37E3,1.184E3,1.374E3,1.177E3,1.235E3,5E0,1.603E3,1.047E3,3E0,5E0,1.293E3,2E0,1.835E3,1.28E3,1.726E3,3.67E2,1.085E3,2E1,4.235E3,5.034E3,4E0,2.974E3,1.355E3,1.505E3,1.973E3,1.126E3,5.034E3,1.384E3,1.86E3,5.784E3,6E0,1.7549051E2,-4.7833292E2,1.1198795E3,-1.1563743E3,1.4030054E3,-4.776577E3,5.673814E3,1.6839977E4,7.921862E2,-7.145019E3,-1.4795338E3,-2.9662153E3,-1.0246434E3,2.0107643E3,-2.1299226E3,-3.614458E2,1.3249684E3,5.999636E3,-2.6497534E3,1.6475518E3,2.562362E3,1.0716269E4,2.2800447E3,5.338923E3,-3.8396274E3,-4.111257E2,2.1210857E3,3.8742136E2,-9.031147E2,3.760388E3,2.8676963E3,-3.609966E3],"split_indices":[1,1,1,1,1,3,1,1,3,2,1,3,0,0,1,1,1,2,0,0,3,0,1,0,0,0,0,1,0,0,2,0,0,0,0,0,0,0,0,0,0,0,0,0,0,0,0,0,0,0,0,0,0,0,0,0,0,0,0,0,0,0,0],"split_type":[0,0,0,0,0,0,0,0,0,0,0,0,0,0,0,0,0,0,0,0,0,0,0,0,0,0,0,0,0,0,0,0,0,0,0,0,0,0,0,0,0,0,0,0,0,0,0,0,0,0,0,0,0,0,0,0,0,0,0,0,0,0,0],"sum_hessian":[1.7758E4,1.3118E4,4.64E3,1.1214E4,1.904E3,4.99E2,4.141E3,1.1114E4,1E2,4.92E2,1.412E3,1.52E2,3.47E2,3.35E3,7.91E2,8.613E3,2.501E3,3.7E1,6.3E1,5.2E1,4.4E2,4.87E2,9.25E2,5.7E1,9.5E1,7.4E1,2.73E2,6.58E2,2.692E3,7.06E2,8.5E1,3.592E3,5.021E3,1.852E3,6.49E2,2.4E1,1.3E1,4.5E1,1.8E1,4.8E1,4E0,1.72E2,2.68E2,2.17E2,2.7E2,4.21E2,5.04E2,2.5E1,3.2E1,5.3E1,4.2E1,4.8E1,2.6E1,2.11E2,6.2E1,5E1,6.08E2,3.14E2,2.378E3,6.89E2,1.7E1,9E0,7.6E1],"tree_param":{"num_deleted":"0","num_feature":"4","num_nodes":"63","size_leaf_vector":"1"}},{"base_weights":[7.345751E0,-3.6407527E3,3.226792E2,-3.9512286E2,-8.554695E3,1.5628932E3,-1.1035115E3,2.1753157E3,-4.16049E3,-4.2504624E3,-1.2753027E4,3.0323718E2,4.875312E3,-3.1779888E3,8.335809E2,1.471857E3,2.6841975E4,-6.35604E3,1.3802282E4,-1.3675548E4,-1.2072726E3,-1.6245386E4,-7.9824756E3,1.9195897E3,-2.5690735E3,4.6507666E3,3.287601E4,-1.5735774E3,-7.297411E3,1.7618848E4,-2.2819911E2,-8.131755E2,7.346814E2,3.5073796E3,7.265185E3,-4.65124E3,-9.959051E2,2.1317253E3,6.483738E3,8.513432E2,-3.296625E3,2.4424646E3,-1.341862E3,-2.219566E3,-4.190885E3,-1.2618441E3,-4.558976E3,-1.6194522E2,1.3347668E3,-1.5732562E2,-1.2490717E3,1.0509342E3,-7.605531E2,7.1056064E3,-1.4860352E3,1.3136993E3,-4.7559958E2,-1.631528E3,1.1171882E3,2.3628022E3,5.2585396E3,1.0292266E3,-2.8322308E2],"categories":[],"categories_nodes":[],"categories_segments":[],"categories_sizes":[],"default_left":[0,0,0,0,0,0,0,0,0,0,0,0,0,0,0,0,0,0,0,0,0,0,0,0,0,0,0,0,0,0,0,0,0,0,0,0,0,0,0,0,0,0,0,0,0,0,0,0,0,0,0,0,0,0,0,0,0,0,0,0,0,0,0],"id":18,"left_children":[1,3,5,7,9,11,13,15,17,19,21,23,25,27,29,31,33,35,37,39,41,43,45,47,49,51,53,55,57,59,61,-1,-1,-1,-1,-1,-1,-1,-1,-1,-1,-1,-1,-1,-1,-1,-1,-1,-1,-1,-1,-1,-1,-1,-1,-1,-1,-1,-1,-1,-1,-1,-1],"loss_changes":[2.0430551E10,2.2532332E10,2.8915999E10,8.255256E9,1.0101469E10,3.6482933E10,3.0558974E10,8.757942E9,1.3733331E10,7.9858575E9,4.601901E9,2.9420868E10,1.4993539E10,2.4257671E10,7.009897E10,6.037586E9,5.9843994E8,7.072563E9,1.8783575E9,3.4937068E9,1.5734981E10,3.718574E9,2.8799442E9,5.262241E10,1.4948522E10,1.2226335E10,2.2949437E9,1.7332894E10,1.1449594E10,1.147134E10,2.3629033E10,0E0,0E0,0E0,0E0,0E0,0E0,0E0,0E0,0E0,0E0,0E0,0E0,0E0,0E0,0E0,0E0,0E0,0E0,0E0,0E0,0E0,0E0,0E0,0E0,0E0,0E0,0E0,0E0,0E0,0E0,0E0,0E0],"parents":[2147483647,0,0,1,1,2,2,3,3,4,4,5,5,6,6,7,7,8,8,9,9,10,10,11,11,12,12,13,13,14,14,15,15,16,16,17,17,18,18,19,19,20,20,21,21,22,22,23,23,24,24,25,25,26,26,27,27,28,28,29,29,30,30],"right_children":[2,4,6,8,10,12,14,16,18,20,22,24,26,28,30,32,34,36,38,40,42,44,46,48,50,52,54,56,58,60,62,-1,-1,-1,-1,-1,-1,-1,-1,-1,-1,-1,-1,-1,-1,-1,-1,-1,-1,-1,-1,-1,-1,-1,-1,-1,-1,-1,-1,-1,-1,-1,-1],"split_conditions":[3E0,1E0,1.8E1,3.673E3,2.031E3,1.6E1,2.2E1,3.5E3,5.596E3,3.13E2,4.104E3,1.2E1,5.945E3,6E0,2.3E1,2.48E2,3.662E3,3.886E3,5.784E3,8.6E1,8.9E2,3E0,1.549E3,1.1E1,1.184E3,5.428E3,1.603E3,1.55E2,5.616E3,4.662E3,2.5E1,-8.131755E2,7.346814E2,3.5073796E3,7.265185E3,-4.65124E3,-9.959051E2,2.1317253E3,6.483738E3,8.513432E2,-3.296625E3,2.4424646E3,-1.341862E3,-2.219566E3,-4.190885E3,-1.2618441E3,-4.558976E3,-1.6194522E2,1.3347668E3,-1.5732562E2,-1.2490717E3,1.0509342E3,-7.605531E2,7.1056064E3,-1.4860352E3,1.3136993E3,-4.7559958E2,-1.631528E3,1.1171882E3,2.3628022E3,5.2585396E3,1.0292266E3,-2.8322308E2],"split_indices":[2,2,2,0,0,2,2,0,0,0,0,2,0,3,2,0,0,0,0,0,0,3,1,2,1,0,1,1,0,0,2,0,0,0,0,0,0,0,0,0,0,0,0,0,0,0,0,0,0,0,0,0,0,0,0,0,0,0,0,0,0,0,0],"split_type":[0,0,0,0,0,0,0,0,0,0,0,0,0,0,0,0,0,0,0,0,0,0,0,0,0,0,0,0,0,0,0,0,0,0,0,0,0,0,0,0,0,0,0,0,0,0,0,0,0,0,0,0,0,0,0,0,0,0,0,0,0,0,0],"sum_hessian":[1.7758E4,1.412E3,1.6346E4,8.51E2,5.61E2,8.743E3,7.603E3,5.06E2,3.45E2,2.78E2,2.83E2,6.335E3,2.408E3,3.671E3,3.932E3,4.93E2,1.3E1,3.08E2,3.7E1,6.7E1,2.11E2,1.62E2,1.21E2,4.054E3,2.281E3,2.39E3,1.8E1,2.643E3,1.028E3,2.33E2,3.699E3,1.4E2,3.53E2,8E0,5E0,2.2E1,2.86E2,3.3E1,4E0,9E0,5.8E1,6.1E1,1.5E2,7.9E1,8.3E1,1.1E2,1.1E1,2.576E3,1.478E3,1.537E3,7.44E2,2.231E3,1.59E2,1.7E1,1E0,2.37E2,2.406E3,9.64E2,6.4E1,1.41E2,9.2E1,6.69E2,3.03E3],"tree_param":{"num_deleted":"0","num_feature":"4","num_nodes":"63","size_leaf_vector":"1"}},{"base_weights":[6.69075E0,2.2412447E2,-4.362134E3,3.0776585E1,2.4260617E4,-1.2167501E4,3.4721345E3,-1.217019E3,8.5011664E2,4.524378E4,-1.93607E3,-1.9528008E4,-6.8220645E3,1.3971813E4,-6.8466685E3,-8.384394E2,-1.0304047E4,8.51291E3,3.7200674E2,2.099559E4,5.3095926E4,-2.6100352E4,1.6760264E4,-3.3496625E4,-1.4220148E4,-1.0093757E4,1.13517705E4,2.065814E4,4.1685996E3,-2.3058955E4,1.2506676E3,3.6074856E3,-2.0646375E2,-2.393867E3,7.71582E3,-1.3580608E3,2.0675793E3,-7.786237E2,2.022022E2,-6.715341E3,6.520219E3,6.7540405E3,1.3108406E4,1.8871532E3,-7.3405703E3,-2.6761409E3,6.2264805E3,-5.3721416E3,-9.85927E3,-4.6321457E2,-3.5848586E3,-1.4991383E3,-7.13598E3,1.0805286E3,1.211374E4,-2.2971155E3,4.840932E3,-2.61916E3,2.8275095E3,-5.078333E3,-1.6053517E3,-2.1700095E3,2.6668025E3],"categories":[],"categories_nodes":[],"categories_segments":[],"categories_sizes":[],"default_left":[0,0,0,0,0,0,0,0,0,0,0,0,0,0,0,0,0,0,0,0,0,0,0,0,0,0,0,0,0,0,0,0,0,0,0,0,0,0,0,0,0,0,0,0,0,0,0,0,0,0,0,0,0,0,0,0,0,0,0,0,0,0,0],"id":19,"left_children":[1,3,5,7,9,11,13,15,17,19,21,23,25,27,29,31,33,35,37,39,41,43,45,47,49,51,53,55,57,59,61,-1,-1,-1,-1,-1,-1,-1,-1,-1,-1,-1,-1,-1,-1,-1,-1,-1,-1,-1,-1,-1,-1,-1,-1,-1,-1,-1,-1,-1,-1,-1,-1],"loss_changes":[1.6870779E10,7.8624055E10,5.1529986E10,1.7160474E10,7.429567E10,1.6470422E10,4.5708538E10,2.2878765E10,3.7117E10,1.3165249E10,2.7996242E10,1.2647059E10,1.4741545E10,1.361331E10,2.7990692E10,2.3396405E10,2.2115363E10,1.6687452E10,2.5999114E10,1.3761416E10,1.12563E10,1.0519153E10,1.5578228E10,3.708457E9,5.6907633E9,1.3625719E10,1.0799086E10,1.4413795E10,1.4986421E10,2.2858588E9,2.105372E10,0E0,0E0,0E0,0E0,0E0,0E0,0E0,0E0,0E0,0E0,0E0,0E0,0E0,0E0,0E0,0E0,0E0,0E0,0E0,0E0,0E0,0E0,0E0,0E0,0E0,0E0,0E0,0E0,0E0,0E0,0E0,0E0],"parents":[2147483647,0,0,1,1,2,2,3,3,4,4,5,5,6,6,7,7,8,8,9,9,10,10,11,11,12,12,13,13,14,14,15,15,16,16,17,17,18,18,19,19,20,20,21,21,22,22,23,23,24,24,25,25,26,26,27,27,28,28,29,29,30,30],"right_children":[2,4,6,8,10,12,14,16,18,20,22,24,26,28,30,32,34,36,38,40,42,44,46,48,50,52,54,56,58,60,62,-1,-1,-1,-1,-1,-1,-1,-1,-1,-1,-1,-1,-1,-1,-1,-1,-1,-1,-1,-1,-1,-1,-1,-1,-1,-1,-1,-1,-1,-1,-1,-1],"split_conditions":[5.653E3,5.616E3,5.815E3,8.82E2,1.054E3,8.92E2,5.892E3,8.29E2,8.93E2,7.7E1,6E0,5.706E3,5.784E3,1.219E3,5.919E3,8.6E1,5.494E3,4.23E2,1.076E3,1E0,5.64E3,1.079E3,2.1E1,6E0,5.736E3,5.765E3,1.434E3,1.23E2,1.374E3,2E1,1.25E3,3.6074856E3,-2.0646375E2,-2.393867E3,7.71582E3,-1.3580608E3,2.0675793E3,-7.786237E2,2.022022E2,-6.715341E3,6.520219E3,6.7540405E3,1.3108406E4,1.8871532E3,-7.3405703E3,-2.6761409E3,6.2264805E3,-5.3721416E3,-9.85927E3,-4.6321457E2,-3.5848586E3,-1.4991383E3,-7.13598E3,1.0805286E3,1.211374E4,-2.2971155E3,4.840932E3,-2.61916E3,2.8275095E3,-5.078333E3,-1.6053517E3,-2.1700095E3,2.6668025E3],"split_indices":[0,0,0,1,1,1,0,1,1,1,3,0,0,1,0,0,0,0,1,3,0,1,2,3,0,0,1,1,1,2,1,0,0,0,0,0,0,0,0,0,0,0,0,0,0,0,0,0,0,0,0,0,0,0,0,0,0,0,0,0,0,0,0],"split_type":[0,0,0,0,0,0,0,0,0,0,0,0,0,0,0,0,0,0,0,0,0,0,0,0,0,0,0,0,0,0,0,0,0,0,0,0,0,0,0,0,0,0,0,0,0,0,0,0,0,0,0,0,0,0,0,0,0,0,0,0,0,0,0],"sum_hessian":[1.7758E4,1.6917E4,8.41E2,1.6783E4,1.34E2,4.21E2,4.2E2,6.652E3,1.0131E4,7.4E1,6E1,1.76E2,2.45E2,2.08E2,2.12E2,6.387E3,2.65E2,5.94E2,9.537E3,1.9E1,5.5E1,2.6E1,3.4E1,4.7E1,1.29E2,2.08E2,3.7E1,1.23E2,8.5E1,7E1,1.42E2,6.4E1,6.323E3,2.57E2,8E0,6.3E1,5.31E2,1.242E3,8.295E3,3E0,1.6E1,2.3E1,3.2E1,6E0,2E1,1.1E1,2.3E1,3.5E1,1.2E1,3.1E1,9.8E1,1.9E2,1.8E1,3.4E1,3E0,1.2E1,1.11E2,3.1E1,5.4E1,6E1,1E1,7.1E1,7.1E1],"tree_param":{"num_deleted":"0","num_feature":"4","num_nodes":"63","size_leaf_vector":"1"}},{"base_weights":[5.8283706E0,-8.005618E2,1.0219737E3,-4.2650192E1,-6.4734976E3,1.483513E4,-7.9156024E2,-2.3561917E2,1.1981864E4,-4.1132886E3,-1.3970817E4,6.506308E3,2.2154512E4,-7.5208765E3,1.1057067E3,-1.2249788E4,-9.281806E1,1.6252402E4,-5.375695E3,-1.0830839E4,-3.3481598E2,-5.186813E3,-2.31688E4,9.251529E3,-8.1632656E3,4.9617977E4,1.0063544E4,-4.976508E3,-1.9095848E4,1.1963707E4,-1.4290045E2,1.0753862E3,-4.0265442E3,-4.0329977E2,1.5211394E2,2.419492E3,6.0123022E3,-2.541618E3,1.4222937E3,-4.1455453E2,-3.9372063E3,-1.4782079E3,1.1468335E3,-4.0308743E3,1.2112528E3,-7.613897E3,-4.0543064E3,8.807303E2,5.729842E3,1.1652999E3,-6.491744E3,6.412765E3,1.1493855E4,6.4334296E2,7.5418853E3,-2.0054182E3,2.7230453E2,-5.2721475E3,-2.3171035E3,-7.220321E1,8.99343E3,-2.6429675E3,1.7355766E2],"categories":[],"categories_nodes":[],"categories_segments":[],"categories_sizes":[],"default_left":[0,0,0,0,0,0,0,0,0,0,0,0,0,0,0,0,0,0,0,0,0,0,0,0,0,0,0,0,0,0,0,0,0,0,0,0,0,0,0,0,0,0,0,0,0,0,0,0,0,0,0,0,0,0,0,0,0,0,0,0,0,0,0],"id":20,"left_children":[1,3,5,7,9,11,13,15,17,19,21,23,25,27,29,31,33,35,37,39,41,43,45,47,49,51,53,55,57,59,61,-1,-1,-1,-1,-1,-1,-1,-1,-1,-1,-1,-1,-1,-1,-1,-1,-1,-1,-1,-1,-1,-1,-1,-1,-1,-1,-1,-1,-1,-1,-1,-1],"loss_changes":[1.4552714E10,4.257421E10,1.9685958E11,2.0273474E10,2.0592882E10,5.545304E10,8.870282E10,1.4751623E10,1.0316771E10,2.2561038E10,2.2421668E10,1.7311603E10,1.6054973E11,4.4906086E10,7.34827E10,1.4142223E10,1.395388E10,6.005074E9,2.6540756E9,2.477659E10,2.445212E10,2.435458E10,5.099569E9,3.3821403E10,2.3301487E10,1.855511E10,6.3857582E10,4.0155136E10,1.4699069E10,2.2739416E11,6.424656E10,0E0,0E0,0E0,0E0,0E0,0E0,0E0,0E0,0E0,0E0,0E0,0E0,0E0,0E0,0E0,0E0,0E0,0E0,0E0,0E0,0E0,0E0,0E0,0E0,0E0,0E0,0E0,0E0,0E0,0E0,0E0,0E0],"parents":[2147483647,0,0,1,1,2,2,3,3,4,4,5,5,6,6,7,7,8,8,9,9,10,10,11,11,12,12,13,13,14,14,15,15,16,16,17,17,18,18,19,19,20,20,21,21,22,22,23,23,24,24,25,25,26,26,27,27,28,28,29,29,30,30],"right_children":[2,4,6,8,10,12,14,16,18,20,22,24,26,28,30,32,34,36,38,40,42,44,46,48,50,52,54,56,58,60,62,-1,-1,-1,-1,-1,-1,-1,-1,-1,-1,-1,-1,-1,-1,-1,-1,-1,-1,-1,-1,-1,-1,-1,-1,-1,-1,-1,-1,-1,-1,-1,-1],"split_conditions":[3.442E3,3.026E3,3.727E3,2.974E3,6E0,3.612E3,4.286E3,3.8E1,1.374E3,7.09E2,9.78E2,3.589E3,3.662E3,4.201E3,4.399E3,8.9E2,8.47E2,6E0,2.998E3,3.4E2,3E0,3.12E2,1.077E3,3.568E3,6E0,1.3E1,3.714E3,3.96E3,4.252E3,4.39E3,4.468E3,1.0753862E3,-4.0265442E3,-4.0329977E2,1.5211394E2,2.419492E3,6.0123022E3,-2.541618E3,1.4222937E3,-4.1455453E2,-3.9372063E3,-1.4782079E3,1.1468335E3,-4.0308743E3,1.2112528E3,-7.613897E3,-4.0543064E3,8.807303E2,5.729842E3,1.1652999E3,-6.491744E3,6.412765E3,1.1493855E4,6.4334296E2,7.5418853E3,-2.0054182E3,2.7230453E2,-5.2721475E3,-2.3171035E3,-7.220321E1,8.99343E3,-2.6429675E3,1.7355766E2],"split_indices":[0,0,0,0,3,0,0,1,1,1,1,0,0,0,0,0,0,3,0,1,3,1,1,0,3,2,0,0,0,0,0,0,0,0,0,0,0,0,0,0,0,0,0,0,0,0,0,0,0,0,0,0,0,0,0,0,0,0,0,0,0,0,0],"split_type":[0,0,0,0,0,0,0,0,0,0,0,0,0,0,0,0,0,0,0,0,0,0,0,0,0,0,0,0,0,0,0,0,0,0,0,0,0,0,0,0,0,0,0,0,0,0,0,0,0,0,0,0,0,0,0,0,0,0,0,0,0,0,0],"sum_hessian":[1.7758E4,9.901E3,7.857E3,8.735E3,1.166E3,9.11E2,6.946E3,8.598E3,1.37E2,8.88E2,2.78E2,4.27E2,4.84E2,1.527E3,5.419E3,1E2,8.498E3,1.1E2,2.7E1,3.19E2,5.69E2,1.43E2,1.35E2,3.6E2,6.7E1,1.47E2,3.37E2,1.253E3,2.74E2,5.58E2,4.861E3,3.1E1,6.9E1,2.611E3,5.887E3,8.6E1,2.4E1,1.7E1,1E1,1.61E2,1.58E2,2.63E2,3.06E2,6.1E1,8.2E1,2E1,1.15E2,2.89E2,7.1E1,4.3E1,2.4E1,4.7E1,1E2,2.71E2,6.6E1,6.97E2,5.56E2,1.38E2,1.36E2,4.07E2,1.51E2,3.48E2,4.513E3],"tree_param":{"num_deleted":"0","num_feature":"4","num_nodes":"63","size_leaf_vector":"1"}},{"base_weights":[5.193687E0,1.9309494E2,-4.020455E3,-4.1977548E2,2.2814207E3,-3.1215835E3,-1.1363266E4,1.452968E2,-3.7462144E3,8.522004E3,4.4851816E2,-1.0980851E4,-2.1435764E3,-1.7423295E4,-1.102512E3,-5.5897354E1,2.2285176E4,-8.584756E3,-2.055381E3,1.0149124E4,-1.4952073E3,-8.218632E3,1.3336718E3,1.1301318E4,-1.4051007E4,5.606341E3,-4.268516E3,-6.188873E3,-2.2417791E4,1.0630494E4,-6.7143394E3,4.7534775E1,-9.5655194E2,-5.0333594E2,7.3326143E3,-8.464915E2,-2.2599902E3,5.396487E2,-9.1166223E2,5.60498E2,2.4613127E3,1.2820911E3,-2.6331367E3,-7.6948987E2,-3.3838357E3,1.6893887E3,-6.104438E1,8.653964E3,5.883009E2,-3.229324E3,4.8078696E3,6.0226387E1,6.0702866E3,-2.4631526E3,-2.5558195E2,-2.0164498E3,1.1900707E3,-3.5256697E3,-5.8053984E3,-9.712119E2,7.7403413E3],"categories":[],"categories_nodes":[],"categories_segments":[],"categories_sizes":[],"default_left":[0,0,0,0,0,0,0,0,0,0,0,0,0,0,0,0,0,0,0,0,0,0,0,0,0,0,0,0,0,0,0,0,0,0,0,0,0,0,0,0,0,0,0,0,0,0,0,0,0,0,0,0,0,0,0,0,0,0,0,0,0],"id":21,"left_children":[1,3,5,7,9,11,13,15,17,19,21,23,25,27,29,31,33,35,37,39,41,43,45,47,49,51,53,55,57,59,-1,-1,-1,-1,-1,-1,-1,-1,-1,-1,-1,-1,-1,-1,-1,-1,-1,-1,-1,-1,-1,-1,-1,-1,-1,-1,-1,-1,-1,-1,-1],"loss_changes":[1.3434118E10,2.1717844E10,5.1919227E9,2.4660042E10,4.403394E10,5.410759E9,5.3283103E9,4.99575E10,1.5567481E10,1.4260683E10,2.2849788E10,5.4947564E9,1.0398838E10,2.8912138E9,1.29286E10,1.5425098E10,3.610872E10,5.7781207E9,1.6824161E10,1.1884642E10,1.1432729E10,1.0431646E10,3.1502211E10,2.5452288E9,5.8959145E9,1.7844652E10,1.1897003E10,9.107191E8,6.595154E8,1.1056096E10,0E0,0E0,0E0,0E0,0E0,0E0,0E0,0E0,0E0,0E0,0E0,0E0,0E0,0E0,0E0,0E0,0E0,0E0,0E0,0E0,0E0,0E0,0E0,0E0,0E0,0E0,0E0,0E0,0E0,0E0,0E0],"parents":[2147483647,0,0,1,1,2,2,3,3,4,4,5,5,6,6,7,7,8,8,9,9,10,10,11,11,12,12,13,13,14,14,15,15,16,16,17,17,18,18,19,19,20,20,21,21,22,22,23,23,24,24,25,25,26,26,27,27,28,28,29,29],"right_children":[2,4,6,8,10,12,14,16,18,20,22,24,26,28,30,32,34,36,38,40,42,44,46,48,50,52,54,56,58,60,-1,-1,-1,-1,-1,-1,-1,-1,-1,-1,-1,-1,-1,-1,-1,-1,-1,-1,-1,-1,-1,-1,-1,-1,-1,-1,-1,-1,-1,-1,-1],"split_conditions":[1.603E3,1.37E3,1.726E3,1.184E3,1.393E3,8.71E2,4.062E3,1.177E3,1.235E3,2.9E1,1.416E3,1.63E3,1.631E3,9.79E2,5.2E3,1.085E3,3E0,1.21E3,1.293E3,1.505E3,1.374E3,6E0,1.434E3,9.6E1,1.707E3,6E0,2.886E3,1.7E1,6E0,4.286E3,-6.7143394E3,4.7534775E1,-9.5655194E2,-5.0333594E2,7.3326143E3,-8.464915E2,-2.2599902E3,5.396487E2,-9.1166223E2,5.60498E2,2.4613127E3,1.2820911E3,-2.6331367E3,-7.6948987E2,-3.3838357E3,1.6893887E3,-6.104438E1,8.653964E3,5.883009E2,-3.229324E3,4.8078696E3,6.0226387E1,6.0702866E3,-2.4631526E3,-2.5558195E2,-2.0164498E3,1.1900707E3,-3.5256697E3,-5.8053984E3,-9.712119E2,7.7403413E3],"split_indices":[1,1,1,1,1,0,0,1,1,2,1,1,0,0,0,1,3,1,1,0,1,3,1,0,1,3,0,2,3,0,0,0,0,0,0,0,0,0,0,0,0,0,0,0,0,0,0,0,0,0,0,0,0,0,0,0,0,0,0,0,0],"split_type":[0,0,0,0,0,0,0,0,0,0,0,0,0,0,0,0,0,0,0,0,0,0,0,0,0,0,0,0,0,0,0,0,0,0,0,0,0,0,0,0,0,0,0,0,0,0,0,0,0,0,0,0,0,0,0,0,0,0,0,0,0],"sum_hessian":[1.7758E4,1.6967E4,7.91E2,1.3118E4,3.849E3,7.06E2,8.5E1,1.1214E4,1.904E3,8.73E2,2.976E3,7.7E1,6.29E2,5.3E1,3.2E1,1.1114E4,1E2,4.92E2,1.412E3,7.51E2,1.22E2,2.75E2,2.701E3,9E0,6.8E1,1.35E2,4.94E2,1.7E1,3.6E1,2.4E1,8E0,1.0465E4,6.49E2,3.7E1,6.3E1,1.9E2,3.02E2,4.87E2,9.25E2,1.71E2,5.8E2,7.3E1,4.9E1,1.84E2,9.1E1,5.05E2,2.196E3,1E0,8E0,6.5E1,3E0,1.12E2,2.3E1,1.33E2,3.61E2,1.3E1,4E0,2.3E1,1.3E1,1.6E1,8E0],"tree_param":{"num_deleted":"0","num_feature":"4","num_nodes":"61","size_leaf_vector":"1"}},{"base_weights":[4.4791303E0,1.8919888E2,-3.707033E3,-2.481665E0,1.5739528E4,-9.913269E3,2.5227493E3,2.163512E2,-7.32503E3,3.012021E4,2.4114993E3,-1.5951168E4,-5.5286284E3,1.0665769E4,-5.479194E3,1.1281841E2,2.3776488E4,-1.8035701E4,-4.3540444E3,2.1507713E4,4.3379543E4,7.7750234E3,-2.8914705E4,-2.7331102E4,-1.1626645E4,1.0592632E3,-1.2683793E4,1.6397967E4,2.276719E3,-1.7949307E4,7.50577E2,-6.6563044E0,1.350161E3,6.762833E3,-1.0949482E3,-6.9859956E3,-2.6273716E3,3.3569558E3,-1.01739465E3,5.2884233E3,2.266832E3,1.8789564E3,1.0720516E4,-3.920735E3,2.5750186E3,-9.899799E3,-1.4809634E3,-4.370548E3,-8.0799126E3,-4.0038254E3,-1.4200072E3,-2.9408792E3,9.604855E2,1.3413983E3,-3.4394758E3,-1.9138483E3,3.8531216E3,2.9905964E3,-1.4298501E3,-3.1319468E3,-6.39639E3,-1.7446073E3,2.0427532E3],"categories":[],"categories_nodes":[],"categories_segments":[],"categories_sizes":[],"default_left":[0,0,0,0,0,0,0,0,0,0,0,0,0,0,0,0,0,0,0,0,0,0,0,0,0,0,0,0,0,0,0,0,0,0,0,0,0,0,0,0,0,0,0,0,0,0,0,0,0,0,0,0,0,0,0,0,0,0,0,0,0,0,0],"id":22,"left_children":[1,3,5,7,9,11,13,15,17,19,21,23,25,27,29,31,33,35,37,39,41,43,45,47,49,51,53,55,57,59,61,-1,-1,-1,-1,-1,-1,-1,-1,-1,-1,-1,-1,-1,-1,-1,-1,-1,-1,-1,-1,-1,-1,-1,-1,-1,-1,-1,-1,-1,-1,-1,-1],"loss_changes":[1.2176087E10,5.042745E10,3.257967E10,2.6782734E10,3.941059E10,1.1083846E10,2.7490791E10,3.958385E10,1.5354776E10,1.0372407E10,1.8370849E10,8.3928965E9,1.1609248E10,1.0012994E10,1.6560579E10,1.5671376E10,2.1031748E10,8.2311803E9,5.988312E9,2.8127273E9,1.2698665E10,1.323829E10,6.7177206E9,2.5536594E9,4.796496E9,7.6823854E9,1.0442936E10,9.417974E9,1.0382705E10,1.7803162E9,1.2909129E10,0E0,0E0,0E0,0E0,0E0,0E0,0E0,0E0,0E0,0E0,0E0,0E0,0E0,0E0,0E0,0E0,0E0,0E0,0E0,0E0,0E0,0E0,0E0,0E0,0E0,0E0,0E0,0E0,0E0,0E0,0E0,0E0],"parents":[2147483647,0,0,1,1,2,2,3,3,4,4,5,5,6,6,7,7,8,8,9,9,10,10,11,11,12,12,13,13,14,14,15,15,16,16,17,17,18,18,19,19,20,20,21,21,22,22,23,23,24,24,25,25,26,26,27,27,28,28,29,29,30,30],"right_children":[2,4,6,8,10,12,14,16,18,20,22,24,26,28,30,32,34,36,38,40,42,44,46,48,50,52,54,56,58,60,62,-1,-1,-1,-1,-1,-1,-1,-1,-1,-1,-1,-1,-1,-1,-1,-1,-1,-1,-1,-1,-1,-1,-1,-1,-1,-1,-1,-1,-1,-1,-1,-1],"split_conditions":[5.653E3,5.596E3,5.815E3,5.428E3,8.82E2,8.92E2,5.892E3,5.41E3,4.4E2,5.64E3,1.521E3,5.706E3,1.361E3,1.219E3,5.919E3,5.316E3,2.1E1,5.458E3,5.14E2,1.3E1,1E0,1.042E3,1.591E3,6E0,1.49E2,5.686E3,5.686E3,1.23E2,4E0,6E0,1.25E3,-6.6563044E0,1.350161E3,6.762833E3,-1.0949482E3,-6.9859956E3,-2.6273716E3,3.3569558E3,-1.01739465E3,5.2884233E3,2.266832E3,1.8789564E3,1.0720516E4,-3.920735E3,2.5750186E3,-9.899799E3,-1.4809634E3,-4.370548E3,-8.0799126E3,-4.0038254E3,-1.4200072E3,-2.9408792E3,9.604855E2,1.3413983E3,-3.4394758E3,-1.9138483E3,3.8531216E3,2.9905964E3,-1.4298501E3,-3.1319468E3,-6.39639E3,-1.7446073E3,2.0427532E3],"split_indices":[0,0,0,0,1,1,0,0,1,0,1,0,1,1,0,0,2,0,1,2,3,1,1,3,1,0,0,1,3,3,1,0,0,0,0,0,0,0,0,0,0,0,0,0,0,0,0,0,0,0,0,0,0,0,0,0,0,0,0,0,0,0,0],"split_type":[0,0,0,0,0,0,0,0,0,0,0,0,0,0,0,0,0,0,0,0,0,0,0,0,0,0,0,0,0,0,0,0,0,0,0,0,0,0,0,0,0,0,0,0,0,0,0,0,0,0,0,0,0,0,0,0,0,0,0,0,0,0,0],"sum_hessian":[1.7758E4,1.6917E4,8.41E2,1.6712E4,2.05E2,4.21E2,4.2E2,1.6228E4,4.84E2,9.8E1,1.07E2,1.76E2,2.45E2,2.08E2,2.12E2,1.6158E4,7E1,1.04E2,3.8E2,6.1E1,3.7E1,9.2E1,1.5E1,4.7E1,1.29E2,1.28E2,1.17E2,1.23E2,8.5E1,7E1,1.42E2,1.5811E4,3.47E2,5.2E1,1.8E1,2.2E1,8.2E1,1.2E1,3.68E2,4E1,2.1E1,9E0,2.8E1,1.4E1,7.8E1,7E0,8E0,3.5E1,1.2E1,4.4E1,8.5E1,2.4E1,1.04E2,2.2E1,9.5E1,1.2E1,1.11E2,3.6E1,4.9E1,6.2E1,8E0,7.1E1,7.1E1],"tree_param":{"num_deleted":"0","num_feature":"4","num_nodes":"63","size_leaf_vector":"1"}},{"base_weights":[2.428113E0,-2.881066E3,2.5167107E2,-4.5797174E2,-6.549385E3,1.1624691E3,-7.9570795E2,2.4647368E3,-3.7357915E3,-4.3889526E2,-8.350545E3,1.9082454E2,3.7175452E3,-2.2198406E3,5.341194E2,1.5417438E3,3.3443906E4,-5.558211E3,5.459263E3,-6.3786196E3,4.512825E4,-6.9244326E3,-1.4124531E4,1.4755381E3,-2.0921309E3,7.513176E3,2.5125269E3,-1.0220207E3,-5.295464E3,1.2611461E4,-2.2983528E2,5.791147E2,-1.592619E3,3.5115964E3,7.710685E3,-7.301229E2,-2.2657898E3,-1.3100138E3,1.9346875E3,1.290734E2,-3.170534E3,1.0351248E4,5.3120454E3,-2.0676614E3,-9.819008E2,-3.7166716E3,1.2531243E3,-1.2021792E2,1.01856854E3,-1.8916972E2,-1.6141672E3,1.01122797E3,6.5799526E3,-8.692181E2,9.257233E2,1.5729579E3,-3.104228E2,-3.2238986E2,-1.4173969E3,1.5548885E3,3.972282E3,7.41311E2,-2.1997903E2],"categories":[],"categories_nodes":[],"categories_segments":[],"categories_sizes":[],"default_left":[0,0,0,0,0,0,0,0,0,0,0,0,0,0,0,0,0,0,0,0,0,0,0,0,0,0,0,0,0,0,0,0,0,0,0,0,0,0,0,0,0,0,0,0,0,0,0,0,0,0,0,0,0,0,0,0,0,0,0,0,0,0,0],"id":23,"left_children":[1,3,5,7,9,11,13,15,17,19,21,23,25,27,29,31,33,35,37,39,41,43,45,47,49,51,53,55,57,59,61,-1,-1,-1,-1,-1,-1,-1,-1,-1,-1,-1,-1,-1,-1,-1,-1,-1,-1,-1,-1,-1,-1,-1,-1,-1,-1,-1,-1,-1,-1,-1,-1],"loss_changes":[1.2763951E10,1.2556707E10,1.5595159E10,8.171463E9,6.1816914E9,2.170737E10,1.4402025E10,1.2844132E10,6.7667564E9,3.5202515E10,3.4759025E9,1.8586218E10,1.0999417E10,1.3522393E10,3.6290884E10,5.67208E9,3.78282E8,3.6574106E9,3.4541926E9,7.662974E9,4.7136973E8,2.3567944E9,7.844309E9,3.0463394E10,1.5631561E10,3.6011598E10,2.6579735E10,1.2467663E10,6.779044E9,8.051536E9,1.2676188E10,0E0,0E0,0E0,0E0,0E0,0E0,0E0,0E0,0E0,0E0,0E0,0E0,0E0,0E0,0E0,0E0,0E0,0E0,0E0,0E0,0E0,0E0,0E0,0E0,0E0,0E0,0E0,0E0,0E0,0E0,0E0,0E0],"parents":[2147483647,0,0,1,1,2,2,3,3,4,4,5,5,6,6,7,7,8,8,9,9,10,10,11,11,12,12,13,13,14,14,15,15,16,16,17,17,18,18,19,19,20,20,21,21,22,22,23,23,24,24,25,25,26,26,27,27,28,28,29,29,30,30],"right_children":[2,4,6,8,10,12,14,16,18,20,22,24,26,28,30,32,34,36,38,40,42,44,46,48,50,52,54,56,58,60,62,-1,-1,-1,-1,-1,-1,-1,-1,-1,-1,-1,-1,-1,-1,-1,-1,-1,-1,-1,-1,-1,-1,-1,-1,-1,-1,-1,-1,-1,-1,-1,-1],"split_conditions":[3E0,1E0,1.8E1,2.64E3,8.9E2,1.6E1,2.2E1,2.464E3,5.522E3,8.47E2,6E0,1.2E1,1.662E3,6E0,2.3E1,6E0,3.16E2,5.114E3,4.75E2,3E0,1.219E3,8.92E2,2E0,1.1E1,4.791E3,1.454E3,2.695E3,1.11E2,6.29E2,4.662E3,2.5E1,5.791147E2,-1.592619E3,3.5115964E3,7.710685E3,-7.301229E2,-2.2657898E3,-1.3100138E3,1.9346875E3,1.290734E2,-3.170534E3,1.0351248E4,5.3120454E3,-2.0676614E3,-9.819008E2,-3.7166716E3,1.2531243E3,-1.2021792E2,1.01856854E3,-1.8916972E2,-1.6141672E3,1.01122797E3,6.5799526E3,-8.692181E2,9.257233E2,1.5729579E3,-3.104228E2,-3.2238986E2,-1.4173969E3,1.5548885E3,3.972282E3,7.41311E2,-2.1997903E2],"split_indices":[2,2,2,0,0,2,2,0,0,0,3,2,0,3,2,3,1,0,1,3,1,1,2,2,0,0,0,1,1,0,2,0,0,0,0,0,0,0,0,0,0,0,0,0,0,0,0,0,0,0,0,0,0,0,0,0,0,0,0,0,0,0,0],"split_type":[0,0,0,0,0,0,0,0,0,0,0,0,0,0,0,0,0,0,0,0,0,0,0,0,0,0,0,0,0,0,0,0,0,0,0,0,0,0,0,0,0,0,0,0,0,0,0,0,0,0,0,0,0,0,0,0,0,0,0,0,0,0,0],"sum_hessian":[1.7758E4,1.412E3,1.6346E4,8.51E2,5.61E2,8.743E3,7.603E3,4.5E2,4.01E2,1.28E2,4.33E2,6.335E3,2.408E3,3.671E3,3.932E3,4.38E2,1.2E1,3.35E2,6.6E1,1.14E2,1.4E1,3.49E2,8.4E1,4.054E3,2.281E3,5.79E2,1.829E3,2.643E3,1.028E3,2.33E2,3.699E3,3.84E2,5.4E1,4E0,8E0,2.53E2,8.2E1,1.7E1,4.9E1,6.6E1,4.8E1,9E0,5E0,1.28E2,2.21E2,6.9E1,1.5E1,2.576E3,1.478E3,1.915E3,3.66E2,5.29E2,5E1,4.31E2,1.398E3,1.48E2,2.495E3,3.37E2,6.91E2,1.41E2,9.2E1,6.69E2,3.03E3],"tree_param":{"num_deleted":"0","num_feature":"4","num_nodes":"63","size_leaf_vector":"1"}},{"base_weights":[3.4776323E0,7.008461E3,-7.993898E1,1.3206736E3,2.1446553E4,-6.2143306E3,1.196256E2,8.639128E3,-8.762837E3,-1.0435021E4,4.068519E4,2.2935344E4,-6.684299E3,4.646615E3,-9.427946E1,1.8366791E4,2.4685886E3,-1.3110728E4,-1.9039679E3,-2.5738664E4,2.1476645E4,4.6769676E4,-7.609439E3,-3.5582095E3,6.050005E3,-5.176343E3,-1.4150625E4,-4.171947E1,2.5828746E4,-5.041717E3,2.6988904E2,4.278193E3,-1.9324501E3,1.3458584E3,-3.4755012E3,-4.9335713E3,-1.1304044E3,4.49979E2,-5.0625376E3,-2.6424153E3,-6.802712E3,1.6628978E3,4.8956562E3,1.2543343E4,5.9992437E3,-2.617854E3,1.4309883E3,-2.368445E3,-6.9085895E2,5.9951843E2,-3.8675825E3,1.3360585E3,-1.5253102E3,1.0223894E4,3.4945923E3,-8.314621E2,-3.5925515E3,3.2846575E3,2.378497E1],"categories":[],"categories_nodes":[],"categories_segments":[],"categories_sizes":[],"default_left":[0,0,0,0,0,0,0,0,0,0,0,0,0,0,0,0,0,0,0,0,0,0,0,0,0,0,0,0,0,0,0,0,0,0,0,0,0,0,0,0,0,0,0,0,0,0,0,0,0,0,0,0,0,0,0,0,0,0,0],"id":24,"left_children":[1,3,5,7,9,11,13,15,17,19,21,23,25,27,29,31,33,35,37,39,41,43,45,-1,-1,47,49,51,53,55,57,-1,-1,-1,-1,-1,-1,-1,-1,-1,-1,-1,-1,-1,-1,-1,-1,-1,-1,-1,-1,-1,-1,-1,-1,-1,-1,-1,-1],"loss_changes":[1.0377712E10,1.7134924E10,2.1486805E10,1.1218855E10,3.6612678E10,7.7290885E9,1.6461352E10,5.2368543E9,1.8836209E9,1.1785169E10,1.1228275E10,3.2192845E9,6.062846E9,7.617102E10,2.9248369E10,3.088683E9,4.767646E9,3.222424E9,2.5851028E9,1.2091095E9,1.1253965E8,6.9458E9,4.9818445E8,0E0,0E0,5.1820257E9,8.152668E9,3.2120715E10,2.8480807E10,1.2644073E10,3.6871885E10,0E0,0E0,0E0,0E0,0E0,0E0,0E0,0E0,0E0,0E0,0E0,0E0,0E0,0E0,0E0,0E0,0E0,0E0,0E0,0E0,0E0,0E0,0E0,0E0,0E0,0E0,0E0,0E0],"parents":[2147483647,0,0,1,1,2,2,3,3,4,4,5,5,6,6,7,7,8,8,9,9,10,10,11,11,12,12,13,13,14,14,15,15,16,16,17,17,18,18,19,19,20,20,21,21,22,22,25,25,26,26,27,27,28,28,29,29,30,30],"right_children":[2,4,6,8,10,12,14,16,18,20,22,24,26,28,30,32,34,36,38,40,42,44,46,-1,-1,48,50,52,54,56,58,-1,-1,-1,-1,-1,-1,-1,-1,-1,-1,-1,-1,-1,-1,-1,-1,-1,-1,-1,-1,-1,-1,-1,-1,-1,-1,-1,-1],"split_conditions":[7.6E1,6E0,1.99E2,1.5E1,4.9E1,6.7E1,4.73E2,1E0,5E0,1.219E3,1.434E3,3.8E1,1.434E3,4.23E2,8.47E2,4.9E1,1.367E3,1.7E1,3.2E1,9.78E2,2.6E1,1.2E1,1.7E1,-3.5582095E3,6.050005E3,1E0,2E0,1.8E1,5.21E2,8.24E2,8.9E2,4.278193E3,-1.9324501E3,1.3458584E3,-3.4755012E3,-4.9335713E3,-1.1304044E3,4.49979E2,-5.0625376E3,-2.6424153E3,-6.802712E3,1.6628978E3,4.8956562E3,1.2543343E4,5.9992437E3,-2.617854E3,1.4309883E3,-2.368445E3,-6.9085895E2,5.9951843E2,-3.8675825E3,1.3360585E3,-1.5253102E3,1.0223894E4,3.4945923E3,-8.314621E2,-3.5925515E3,3.2846575E3,2.378497E1],"split_indices":[0,3,0,2,0,1,0,3,3,1,1,1,1,0,0,0,1,2,2,1,0,2,2,0,0,3,3,2,1,0,0,0,0,0,0,0,0,0,0,0,0,0,0,0,0,0,0,0,0,0,0,0,0,0,0,0,0,0,0],"split_type":[0,0,0,0,0,0,0,0,0,0,0,0,0,0,0,0,0,0,0,0,0,0,0,0,0,0,0,0,0,0,0,0,0,0,0,0,0,0,0,0,0,0,0,0,0,0,0,0,0,0,0,0,0,0,0,0,0,0,0],"sum_hessian":[1.7758E4,2.08E2,1.755E4,1.5E2,5.8E1,5.52E2,1.6998E4,8.7E1,6.3E1,2.2E1,3.6E1,8E0,5.44E2,7.66E2,1.6232E4,3.3E1,5.4E1,3.8E1,2.5E1,1.5E1,7E0,3.2E1,4E0,1E0,7E0,4.54E2,9E1,6.28E2,1.38E2,1.112E3,1.512E4,3E1,3E0,4.5E1,9E0,1.4E1,2.4E1,2.2E1,3E0,7E0,8E0,2E0,5E0,1.5E1,1.7E1,3E0,1E0,9.2E1,3.62E2,2.1E1,6.9E1,3.33E2,2.95E2,3.3E1,1.05E2,1.042E3,7E1,1.39E2,1.4981E4],"tree_param":{"num_deleted":"0","num_feature":"4","num_nodes":"59","size_leaf_vector":"1"}},{"base_weights":[3.493946E0,-8.741787E2,6.013479E2,4.3050876E2,-2.8104167E3,8.989222E3,2.462769E2,3.3949548E3,-8.4673285E2,-1.646191E4,-1.7428484E3,1.120258E4,-1.2815748E4,-2.0054E3,8.919093E2,-9.601927E2,9.167054E3,-8.068666E3,-1.7150247E2,-2.7693254E4,-9.337289E3,4.896188E3,-2.4557996E3,9.057235E3,5.261655E4,-3.116905E4,5.2738613E3,-1.233124E3,-1.6938873E4,1.902683E4,7.010724E2,2.2334373E2,-3.010244E3,-2.6405185E2,3.0938525E3,-1.3019197E3,-5.939224E3,4.4303403E3,-1.5770323E2,-2.271362E3,-7.7375913E3,-1.0712065E3,-4.3757695E3,-8.860366E2,6.286355E3,-4.699319E3,-4.0611887E2,7.2173236E2,3.401548E3,1.1282587E4,2.712976E3,-1.8149791E2,-6.8962065E3,1.6365689E4,-1.4182554E3,-1.2600219E3,-9.910003E1,-5.9671313E3,-2.2200066E3,3.0126487E3,1.3344344E4,4.1459042E2,-1.19006584E2],"categories":[],"categories_nodes":[],"categories_segments":[],"categories_sizes":[],"default_left":[0,0,0,0,0,0,0,0,0,0,0,0,0,0,0,0,0,0,0,0,0,0,0,0,0,0,0,0,0,0,0,0,0,0,0,0,0,0,0,0,0,0,0,0,0,0,0,0,0,0,0,0,0,0,0,0,0,0,0,0,0,0,0],"id":25,"left_children":[1,3,5,7,9,11,13,15,17,19,21,23,25,27,29,31,33,35,37,39,41,43,45,47,49,51,53,55,57,59,61,-1,-1,-1,-1,-1,-1,-1,-1,-1,-1,-1,-1,-1,-1,-1,-1,-1,-1,-1,-1,-1,-1,-1,-1,-1,-1,-1,-1,-1,-1,-1,-1],"loss_changes":[9.319029E9,1.8179641E10,3.146045E10,1.6284026E10,4.219191E10,2.084805E10,1.4737055E10,3.2562958E10,1.4657281E10,1.6545423E10,1.2735161E10,3.4173858E10,1.3444545E10,2.6031622E10,2.7250938E10,2.1644243E10,3.6834357E10,8.4723907E9,3.78952E10,1.4109389E10,6.3738675E9,6.4731714E10,2.1674775E10,1.6053258E10,2.0516086E9,1.9732214E9,2.0459037E10,8.02883E9,8.0273736E9,1.4496467E10,1.3865085E10,0E0,0E0,0E0,0E0,0E0,0E0,0E0,0E0,0E0,0E0,0E0,0E0,0E0,0E0,0E0,0E0,0E0,0E0,0E0,0E0,0E0,0E0,0E0,0E0,0E0,0E0,0E0,0E0,0E0,0E0,0E0,0E0],"parents":[2147483647,0,0,1,1,2,2,3,3,4,4,5,5,6,6,7,7,8,8,9,9,10,10,11,11,12,12,13,13,14,14,15,15,16,16,17,17,18,18,19,19,20,20,21,21,22,22,23,23,24,24,25,25,26,26,27,27,28,28,29,29,30,30],"right_children":[2,4,6,8,10,12,14,16,18,20,22,24,26,28,30,32,34,36,38,40,42,44,46,48,50,52,54,56,58,60,62,-1,-1,-1,-1,-1,-1,-1,-1,-1,-1,-1,-1,-1,-1,-1,-1,-1,-1,-1,-1,-1,-1,-1,-1,-1,-1,-1,-1,-1,-1,-1,-1],"split_conditions":[8.92E2,4.4E2,8.93E2,1.86E3,4.9E2,4.925E3,1.306E3,9.79E2,2.158E3,2.886E3,5.21E2,4.662E3,5.428E3,1.229E3,1.355E3,8.24E2,1.51E2,2.127E3,2.304E3,1.229E3,4.689E3,6E0,5.32E2,2.616E3,4.872E3,5.034E3,5.494E3,1.076E3,8E0,2.9E1,3.727E3,2.2334373E2,-3.010244E3,-2.6405185E2,3.0938525E3,-1.3019197E3,-5.939224E3,4.4303403E3,-1.5770323E2,-2.271362E3,-7.7375913E3,-1.0712065E3,-4.3757695E3,-8.860366E2,6.286355E3,-4.699319E3,-4.0611887E2,7.2173236E2,3.401548E3,1.1282587E4,2.712976E3,-1.8149791E2,-6.8962065E3,1.6365689E4,-1.4182554E3,-1.2600219E3,-9.910003E1,-5.9671313E3,-2.2200066E3,3.0126487E3,1.3344344E4,4.1459042E2,-1.19006584E2],"split_indices":[1,1,1,0,1,0,0,0,0,0,1,0,0,0,0,0,1,0,0,0,0,3,1,0,0,0,0,1,2,2,0,0,0,0,0,0,0,0,0,0,0,0,0,0,0,0,0,0,0,0,0,0,0,0,0,0,0,0,0,0,0,0,0],"split_type":[0,0,0,0,0,0,0,0,0,0,0,0,0,0,0,0,0,0,0,0,0,0,0,0,0,0,0,0,0,0,0,0,0,0,0,0,0,0,0,0,0,0,0,0,0,0,0,0,0,0,0,0,0,0,0,0,0,0,0,0,0,0,0],"sum_hessian":[1.7758E4,7.195E3,1.0563E4,4.299E3,2.896E3,4.28E2,1.0135E4,1.294E3,3.005E3,2.09E2,2.687E3,3.89E2,3.9E1,2.258E3,7.877E3,7.38E2,5.56E2,2.56E2,2.749E3,8E1,1.29E2,2.6E2,2.427E3,3.71E2,1.8E1,1.9E1,2E1,2.148E3,1.1E2,8.1E1,7.796E3,6.44E2,9.4E1,2.09E2,3.47E2,2.4E2,1.6E1,7.3E1,2.676E3,3.3E1,4.7E1,9.9E1,3E1,1.93E2,6.7E1,4.7E1,2.38E3,2.21E2,1.5E2,1.6E1,2E0,2E0,1.7E1,2E0,1.8E1,2.72E2,1.876E3,3.3E1,7.7E1,7.6E1,5E0,3.787E3,4.009E3],"tree_param":{"num_deleted":"0","num_feature":"4","num_nodes":"63","size_leaf_vector":"1"}},{"base_weights":[3.6392477E0,-6.380668E2,8.1226355E2,-2.4551276E2,-8.428302E3,1.1652062E4,-6.108987E2,4.1485834E2,-2.086706E3,-9.915366E3,1.104188E3,3.1126636E3,1.6442832E4,-5.968524E3,8.9962946E2,-2.9675055E2,1.3576459E4,-1.2408337E4,-7.83304E2,2.7563496E3,-1.1559121E4,3.6411055E4,-3.7847625E3,2.2008484E4,-1.712936E3,1.714272E4,1.5696601E4,-3.9589817E3,-1.5110333E4,9.811935E3,-1.2523244E2,1.1463043E2,-9.1021436E2,1.331266E3,5.839357E3,-1.7681705E3,-4.7575264E3,2.0723367E2,-1.3524135E3,-1.2242966E3,7.4208525E3,-2.0288704E3,-4.833491E3,-3.9687473E2,2.021298E4,1.00334E3,-2.9620564E3,-1.3962885E3,6.560065E3,1.4204716E3,-1.974455E3,2.7342627E3,7.7732627E3,-1.607018E3,2.3121353E2,-3.8159321E3,-9.3114075E2,-8.073875E-1,7.219104E3,-1.9918154E3,1.2701985E2],"categories":[],"categories_nodes":[],"categories_segments":[],"categories_sizes":[],"default_left":[0,0,0,0,0,0,0,0,0,0,0,0,0,0,0,0,0,0,0,0,0,0,0,0,0,0,0,0,0,0,0,0,0,0,0,0,0,0,0,0,0,0,0,0,0,0,0,0,0,0,0,0,0,0,0,0,0,0,0,0,0],"id":26,"left_children":[1,3,5,7,9,11,13,15,17,19,21,23,25,27,29,31,33,35,37,39,41,43,45,47,49,-1,51,53,55,57,59,-1,-1,-1,-1,-1,-1,-1,-1,-1,-1,-1,-1,-1,-1,-1,-1,-1,-1,-1,-1,-1,-1,-1,-1,-1,-1,-1,-1,-1,-1],"loss_changes":[9.215647E9,3.0279117E10,1.2123084E11,1.1464095E10,6.744279E9,3.725901E10,5.6226357E10,6.500346E10,3.3475381E10,8.592663E9,1.1357687E10,3.0037127E10,2.8842672E10,2.8010836E10,4.950687E10,2.4372675E10,3.828736E10,1.1115831E10,2.4058696E10,1.4864013E10,6.2478254E9,2.0059845E10,5.7026596E9,2.119025E10,1.8986906E10,0E0,2.6638418E10,2.6154555E10,1.1323081E10,1.4422154E11,3.6359418E10,0E0,0E0,0E0,0E0,0E0,0E0,0E0,0E0,0E0,0E0,0E0,0E0,0E0,0E0,0E0,0E0,